<?xml version="1.0"?>
<opencv_storage>
<my_svm type_id="opencv-ml-svm">
  <svm_type>C_SVC</svm_type>
  <kernel><type>RBF</type>
    <gamma>1.</gamma></kernel>
  <C>9.9999899999999997e-001</C>
  <term_criteria><epsilon>2.2204460492503131e-016</epsilon>
    <iterations>1000</iterations></term_criteria>
  <var_all>118</var_all>
  <var_count>118</var_count>
  <class_count>2</class_count>
  <class_labels type_id="opencv-matrix">
    <rows>1</rows>
    <cols>2</cols>
    <dt>i</dt>
    <data>
      -1 1</data></class_labels>
  <sv_total>163</sv_total>
  <support_vectors>
    <_>
      9.70551372e-002 0. 1.07839042e-002 0. 2.15678085e-002 0.
      1.07839042e-002 3.23517136e-002 0. 0. 2.15678085e-002
      1.07839042e-002 0. 0. 3.23517136e-002 2.48029798e-001
      2.15678085e-002 0. 1.07839042e-002 3.23517136e-002 2.04894185e-001
      1.07839040e-001 1.07839042e-002 0. 0. 2.15678085e-002
      4.31356169e-002 7.54873306e-002 4.31356169e-002 1.07839042e-002 0.
      0. 2.15678085e-002 3.23517136e-002 2.15678085e-002 1.07839042e-002
      1.07839042e-002 1.07839042e-002 1.07839042e-002 0. 2.15678085e-002
      1.07839042e-002 0. 5.39195202e-002 8.51928413e-001 2.15678085e-002
      0. 2.15678085e-002 2.58813709e-001 1.94110274e-001 3.23517136e-002
      1.07839042e-002 1.07839040e-001 2.15678085e-002 0. 7.54873306e-002
      1.07839042e-002 3.23517136e-002 5.39195202e-002 6.05198741e-003 0.
      1.07839042e-002 0. 2.15678085e-002 0. 1.07839042e-002
      3.23517136e-002 0. 0. 2.15678085e-002 1.07839042e-002 0.
      -9.10031516e-003 -1.31498612e-002 2.02528223e-001 2.15678085e-002
      -1.82006303e-002 -7.41672609e-003 -1.31498612e-002 1.95793867e-001
      8.96384120e-002 1.07839042e-002 0. 0. -4.21343967e-002
      -7.51684755e-002 2.99857557e-002 3.40353027e-002 1.07839042e-002
      0. -9.10031516e-003 2.15678085e-002 3.23517136e-002
      2.15678085e-002 1.07839042e-002 1.07839042e-002 1.07839042e-002
      -1.65170394e-002 -9.10031516e-003 2.15678085e-002 1.07839042e-002
      0. -5.52842580e-002 5.59908152e-003 -1.48334522e-002 0.
      2.15678085e-002 9.50080305e-002 -2.33604550e-001 2.32513994e-002
      -7.41672609e-003 -1.95653662e-002 -1.48334522e-002
      -9.10031516e-003 1.17851272e-002 -7.41672609e-003 5.05076908e-003
      2.66185757e-002</_>
    <_>
      1.47197723e-001 3.67994308e-002 0. 0. 2.45329533e-002 0.
      1.22664766e-002 1.22664766e-002 0. 0. 0. 0. 0. 1.22664766e-002
      8.58653337e-002 1.47197723e-001 2.45329533e-002 0. 1.22664766e-002
      2.45329533e-002 1.59464195e-001 1.96263626e-001 0. 1.22664766e-002
      2.45329533e-002 3.67994308e-002 1.22664766e-002 2.45329533e-002
      1.22664766e-002 0. 0. 0. 1.22664766e-002 1.22664766e-002 0. 0.
      1.22664766e-002 0. 3.67994308e-002 1.22664766e-002 1.22664766e-002
      0. 1.22664766e-002 3.67994308e-002 8.95452797e-001 3.67994308e-002
      1.22664766e-002 2.45329533e-002 2.20796570e-001 8.58653337e-002
      1.22664766e-002 0. 2.45329533e-002 2.45329533e-002 0.
      9.81318131e-002 3.67994308e-002 1.22664766e-002 4.90659066e-002
      6.98012114e-002 3.67994308e-002 0. 0. 1.34763084e-002 0.
      1.22664766e-002 -9.84681305e-003 0. 0. -1.10566448e-002 0. 0.
      1.22664766e-002 4.16387543e-002 -4.07652408e-002 2.45329533e-002
      0. 1.20983180e-003 1.34763084e-002 4.88977507e-002 1.18867114e-001
      -1.10566448e-002 1.22664766e-002 2.45329533e-002 -1.84837915e-002
      1.20983180e-003 -1.96936261e-002 -2.09034570e-002 0. 0. 0.
      1.22664766e-002 -9.84681305e-003 -1.10566448e-002 -1.10566448e-002
      1.22664766e-002 0. 3.67994308e-002 1.22664766e-002 1.22664766e-002
      -1.10566448e-002 1.22664766e-002 -6.27103671e-002 -2.22486854e-002
      2.57427860e-002 -9.84681305e-003 2.41966359e-003 1.07203275e-002
      -6.89276904e-002 1.20983180e-003 0. -8.63697939e-003
      2.41966359e-003 0. 5.39052337e-002 1.46861412e-002
      -9.84681305e-003 -1.72739588e-002</_>
    <_>
      2.71687984e-001 4.07531969e-002 1.35843987e-002 0. 0. 0. 0.
      2.71687973e-002 0. 1.35843987e-002 2.71687973e-002 1.35843992e-001
      0. 4.07531969e-002 2.71687973e-002 2.58103579e-001 6.79219961e-002
      0. 0. 4.07531969e-002 1.49428383e-001 8.15063938e-002 0.
      2.71687973e-002 4.07531969e-002 1.35843987e-002 1.35843992e-001
      1.35843992e-001 2.71687973e-002 1.35843987e-002 0. 0. 0. 0.
      2.71687973e-002 1.35843987e-002 1.35843987e-002 2.71687973e-002
      5.43375947e-002 1.76597178e-001 4.07531969e-002 4.07531969e-002 0.
      5.43375947e-002 7.74310708e-001 1.76597178e-001 1.35843987e-002
      4.07531969e-002 1.76597178e-001 1.63012788e-001 8.15063938e-002 0.
      4.07531969e-002 1.35843987e-002 0. 1.35843987e-002 4.07531969e-002
      4.07531969e-002 1.22259587e-001 1.49709433e-001 4.07531969e-002
      1.35843987e-002 0. 0. 0. 0. 2.71687973e-002 0. 3.12272459e-005
      6.24544919e-005 9.51844752e-002 0. 4.07531969e-002
      -5.41502386e-002 -1.34938389e-001 1.37093104e-002 0. 0.
      4.07531969e-002 -1.21635064e-001 -2.70876050e-001 0.
      2.71687973e-002 4.07531969e-002 1.35843987e-002 1.22290820e-001
      6.80781305e-002 -1.34907197e-002 1.35843987e-002 0. 0. 0. 0.
      -1.34907197e-002 3.12272459e-005 -1.35219442e-002 2.71687973e-002
      1.36780776e-002 9.52781439e-002 1.36468541e-002 2.72000246e-002
      -1.35531714e-002 1.36780776e-002 4.24394608e-002 -2.67003924e-002
      1.35843987e-002 1.36468541e-002 1.76597178e-001 5.45874164e-002
      6.79532215e-002 -1.35531714e-002 1.36468541e-002 3.12272459e-005
      -2.71063428e-002 -5.41814640e-002 9.36798751e-005 2.72000246e-002
      6.80468976e-002</_>
    <_>
      1.43671215e-001 1.30610196e-002 0. 0. 0. 0. 0. 1.30610196e-002 0.
      3.91830616e-002 7.83661231e-002 2.87342429e-001 0. 1.30610196e-002
      5.22440784e-002 3.91830593e-001 3.39586526e-001 0. 0.
      3.91830616e-002 6.53050989e-002 2.61220396e-001 5.22440784e-002
      1.30610196e-002 1.30610196e-002 0. 7.83661231e-002 1.43671215e-001
      5.22440784e-002 2.61220392e-002 0. 0. 0. 0. 1.56732246e-001 0. 0.
      1.30610196e-002 1.30610196e-002 2.61220392e-002 5.22440784e-002
      2.61220392e-002 0. 6.53050989e-002 1.82854280e-001 1.43671215e-001
      3.91830616e-002 0. 4.31013644e-001 4.31013644e-001 6.53050989e-002
      1.30610196e-002 1.69793263e-001 3.91830616e-002 2.61220392e-002
      5.22440784e-002 2.61220392e-002 6.53050989e-002 7.83661231e-002
      9.87132043e-002 1.82151701e-003 0. 0. 0. -1.12395026e-002 0.
      1.82151701e-003 -1.12395026e-002 1.67040564e-002 3.34081128e-002
      1.29989386e-001 0. 1.82151701e-003 4.10045758e-002
      -6.89890385e-002 1.48514971e-001 0. 0. 3.91830616e-002
      3.15865912e-002 1.03867352e-001 5.22440784e-002 -2.06574872e-002
      1.30610196e-002 -5.61975166e-002 -1.15498975e-002 7.62341991e-002
      7.28606805e-003 2.61220392e-002 0. 0. -2.24790052e-002
      -4.49580103e-002 6.68162256e-002 -1.12395026e-002 0.
      1.82151701e-003 -9.41798557e-003 -7.59646855e-003 -7.13904500e-002
      -3.00754774e-002 0. -1.33714229e-002 -5.02755404e-001
      -5.86398393e-002 5.46455383e-003 -1.12395026e-002 2.28702590e-001
      1.61265582e-001 2.03470886e-002 1.30610196e-002 1.13595746e-001
      -5.77494875e-003 1.48825366e-002 5.22440784e-002 1.48825366e-002
      3.15865912e-002 1.09291077e-002</_>
    <_>
      2.17140600e-001 2.89520808e-002 1.44760404e-002 0. 1.44760404e-002
      0. 0. 1.73712477e-001 1.44760404e-002 1.44760404e-002
      1.01332285e-001 3.90853077e-001 5.79041615e-002 2.89520808e-002
      1.15808323e-001 1.73712477e-001 1.88188523e-001 0. 1.44760404e-002
      4.34281193e-002 0. 1.30284369e-001 4.34281193e-002 0.
      1.44760404e-002 7.23802000e-002 8.68562385e-002 4.34281193e-002
      1.01332285e-001 5.79041615e-002 1.44760404e-002 2.89520808e-002
      4.34281193e-002 3.90853077e-001 3.32948923e-001 4.34281193e-002
      2.89520808e-002 0. 1.01332285e-001 2.89520808e-002 7.23802000e-002
      1.44760400e-001 1.44760404e-002 8.68562385e-002 2.89520808e-002 0.
      7.23802000e-002 1.44760404e-002 4.92185354e-001 1.01332285e-001
      4.34281193e-002 1.44760404e-002 1.30284369e-001 4.34281193e-002
      1.44760404e-002 1.44760404e-002 1.44760404e-002 7.23802000e-002
      1.59236446e-001 1.51641607e-001 2.07647048e-002 1.44760404e-002
      -8.18737503e-003 6.28866535e-003 0. -2.45621260e-002
      1.00026101e-001 6.28866535e-003 6.28866535e-003 1.12711564e-002
      -5.09758234e-001 5.79041615e-002 2.89520808e-002 9.12461951e-002
      7.54639730e-002 -1.72055990e-001 0. 1.44760404e-002
      4.34281193e-002 0. 1.05722241e-001 2.70533692e-002 0.
      1.44760404e-002 7.23802000e-002 8.68562385e-002 4.34281193e-002
      9.31449085e-002 2.51546614e-002 1.44760404e-002 2.89520808e-002
      4.34281193e-002 3.58103573e-001 2.26513043e-001 -3.84456329e-002
      2.07647048e-002 0. 1.01332285e-001 2.89520808e-002 7.23802000e-002
      1.03823528e-001 -2.64608357e-002 8.68562385e-002 2.89520808e-002
      0. 7.23802000e-002 1.44760404e-002 4.83997971e-001 1.01332285e-001
      4.34281193e-002 1.44760404e-002 1.30284369e-001 4.34281193e-002
      1.44760404e-002 6.28866535e-003 1.44760404e-002 7.23802000e-002
      8.55500698e-002</_>
    <_>
      1.87132701e-001 1.43948235e-002 0. 0. 0. 0. 0. 7.19741136e-002 0.
      7.19741136e-002 5.75792938e-002 5.61398089e-001 0. 0.
      5.75792938e-002 7.19741136e-002 1.72737882e-001 0. 0.
      5.75792938e-002 7.19741136e-002 8.63689408e-002 1.00763761e-001
      1.43948235e-002 0. 0. 7.19741136e-002 1.43948227e-001
      1.29553407e-001 4.31844704e-002 1.43948235e-002 0. 0.
      2.15922356e-001 4.60634351e-001 1.43948235e-002 0. 0. 0. 0.
      8.63689408e-002 4.31844704e-002 2.87896469e-002 0. 0.
      2.87896469e-002 2.87896469e-002 0. 4.60634351e-001 4.31844704e-002
      1.43948235e-002 4.31844704e-002 1.58343062e-001 1.43948235e-002
      1.43948235e-002 0. 0. 2.87896469e-002 1.15158588e-001
      -3.00078988e-002 -1.45572573e-002 -1.44760404e-002 0.
      -1.44760404e-002 0. 0. -1.01738364e-001 -1.44760404e-002
      5.74980751e-002 -4.37529907e-002 1.70545012e-001 -5.79041615e-002
      -2.89520808e-002 -5.82290292e-002 -1.01738364e-001
      -1.54506415e-002 0. -1.44760404e-002 1.41511746e-002
      7.19741136e-002 -4.39154282e-002 5.73356412e-002 1.43948235e-002
      -1.44760404e-002 -7.23802000e-002 -1.48821250e-002 1.00520104e-001
      2.82211229e-002 -1.47196911e-002 -8.12169164e-005 -2.89520808e-002
      -4.34281193e-002 -1.74930722e-001 1.27685428e-001 -2.90332958e-002
      -2.89520808e-002 0. -1.01332285e-001 -2.89520808e-002
      1.39887407e-002 -1.01575926e-001 1.43136065e-002 -8.68562385e-002
      -2.89520808e-002 2.87896469e-002 -4.35905531e-002 -1.44760404e-002
      -3.15510035e-002 -5.81478141e-002 -2.90332958e-002 2.87084300e-002
      2.80586928e-002 -2.90332958e-002 -8.12169164e-005 -1.44760404e-002
      -1.44760404e-002 -4.35905531e-002 -4.40778583e-002</_>
    <_>
      1.56537056e-001 2.84612812e-002 0. 0. 2.84612812e-002 0. 0.
      8.53838474e-002 0. 0. 8.53838474e-002 7.68454611e-001
      1.42306406e-002 2.84612812e-002 1.42306406e-002 3.69996667e-001
      3.13074112e-001 1.42306406e-002 0. 1.42306406e-002 2.84612812e-002
      5.69225624e-002 1.42306406e-002 0. 0. 4.26919237e-002 0.
      1.42306406e-002 2.84612812e-002 0. 0. 4.26919237e-002
      1.42306406e-002 2.84612812e-002 1.56537056e-001 4.26919237e-002 0.
      1.42306406e-002 2.84612812e-002 2.84612812e-002 0. 7.11532012e-002
      0. 2.84612812e-002 2.13459611e-001 8.53838474e-002 7.11532012e-002
      5.69225624e-002 5.69225624e-002 1.42306402e-001 0. 1.42306406e-002
      0. 0. 0. 0. 0. 1.42306406e-002 5.69225624e-002 2.21038461e-002
      2.84612812e-002 0. 0. 2.84612812e-002 0. 0. 8.53838474e-002 0. 0.
      5.55097982e-002 3.05406868e-001 -7.06383027e-004 2.84612812e-002
      1.42306406e-002 2.50500470e-001 1.33829832e-001 1.42306406e-002
      -1.49370236e-002 1.42306406e-002 -1.41276605e-003 -1.77625567e-002
      -3.05804294e-002 -1.49370236e-002 0. 4.26919237e-002
      -1.49370236e-002 -7.06383027e-004 -3.12868133e-002
      -1.49370236e-002 0. 4.26919237e-002 1.42306406e-002
      2.84612812e-002 9.67889577e-002 1.28178764e-002 0.
      -1.56434067e-002 1.35242576e-002 1.35242576e-002 -1.49370236e-002
      5.62161766e-002 -2.98740473e-002 -1.20908961e-001 -1.00217879e-001
      -4.23829257e-003 5.62161766e-002 -2.82553211e-003 -4.80810285e-001
      -3.65552425e-001 -4.48110700e-002 -7.06383027e-004
      -8.96221399e-002 -1.49370236e-002 0. -4.48110700e-002 0.
      -3.05804294e-002 -1.77625567e-002</_>
    <_>
      1.24303706e-001 2.26006731e-002 0. 0. 0. 0. 0. 3.39010097e-002 0.
      1.13003366e-002 0. 1.58204719e-001 0. 1.13003366e-002
      4.52013463e-002 1.13003366e-002 2.26006731e-002 1.13003366e-002
      1.13003366e-002 5.65016828e-002 1.24303706e-001 4.52013463e-002 0.
      1.13003366e-002 4.52013463e-002 3.39010097e-002 1.24303706e-001
      9.04026926e-002 1.13003366e-002 0. 0. 1.13003366e-002
      2.26006731e-002 2.26006731e-002 1.35604039e-001 0. 0.
      1.13003366e-002 5.65016828e-002 6.78020194e-002 2.26006731e-002
      5.65016828e-002 1.13003366e-002 4.52013463e-002 8.81426275e-001
      1.46904379e-001 5.65016828e-002 2.26006731e-002 7.91023597e-002
      2.37307072e-001 0. 2.26006731e-002 5.65016828e-002 3.39010097e-002
      0. 1.13003366e-002 2.26006731e-002 1.13003366e-002 5.65016828e-002
      -1.33133531e-001 5.43818995e-003 -8.58124122e-002 -1.71624832e-002
      -1.71624832e-002 0. -3.43249664e-002 1.67385265e-002
      -1.71624832e-002 -5.86214662e-003 -1.02974899e-001
      -3.22344780e-001 -1.71624832e-002 -5.86214662e-003
      -4.06110659e-002 -4.69249189e-001 -1.14699192e-001 1.13003366e-002
      1.13003366e-002 -1.21482499e-002 -2.18945950e-001 -1.95073411e-001
      -6.86499327e-002 1.13003366e-002 4.52013463e-002 -1.75864398e-002
      -1.29961595e-002 -6.40596449e-002 -4.01871130e-002
      -1.71624832e-002 -3.43249664e-002 1.13003366e-002 5.43818995e-003
      -4.60492596e-002 6.69541061e-002 -6.86499327e-002 -3.43249664e-002
      1.13003366e-002 -6.36356920e-002 -8.47913325e-004 -1.17242932e-002
      -1.21482499e-002 -2.30246298e-002 -6.28610328e-003 6.75476491e-001
      -2.47204453e-002 5.01423329e-003 -6.32117391e-002 4.47773933e-002
      1.34332180e-001 -3.43249664e-002 5.43818995e-003 2.21767165e-002
      -4.23956662e-004 0. -9.16745663e-002 -1.17242932e-002
      -5.86214662e-003 -1.32285625e-001</_>
    <_>
      1.30933821e-001 0. 0. 0. 0. 0. 0. 0. 0. 0. 0. 0. 0. 0.
      1.78546131e-001 3.21383029e-001 0. 0. 2.38061510e-002
      2.38061510e-002 2.02352270e-001 4.40413773e-001 0. 0. 0. 0.
      4.76123020e-002 3.57092246e-002 1.19030755e-002 1.19030755e-002 0.
      0. 0. 0. 0. 1.19030755e-002 0. 0. 7.14184493e-002 5.95153756e-002
      0. 1.19030755e-002 1.19030755e-002 0. 7.61796832e-001
      1.19030751e-001 0. 0. 0. 0. 0. 0. 1.19030755e-002 1.19030755e-002
      1.19030755e-002 1.19030755e-002 3.57092246e-002 1.19030755e-002
      4.76123020e-002 -2.79725552e-001 -7.46653378e-002 0. 0. 0.
      -1.86663345e-002 0. -3.73326689e-002 0. -5.59990034e-002
      -1.86663345e-002 -3.91993046e-001 0. -5.59990034e-002
      8.52144584e-002 2.27216780e-002 -1.30664349e-001 -1.86663345e-002
      2.38061510e-002 -6.95255250e-002 -5.89764267e-002 2.72416770e-001
      -1.86663345e-002 -3.73326689e-002 -1.86663345e-002
      -9.33316723e-002 -1.01718374e-001 -7.62887821e-002
      -2.54295934e-002 -6.76325895e-003 0. -1.86663345e-002
      -3.73326689e-002 -1.30664349e-001 -1.30664349e-001
      -4.40959260e-002 -5.59990034e-002 0. 1.54194459e-002
      -7.11489767e-002 -5.59990034e-002 1.19030755e-002 -2.54295934e-002
      -7.46653378e-002 3.69803786e-001 -4.89662662e-002 -7.46653378e-002
      0. -5.59990034e-002 -5.59990034e-002 -7.46653378e-002
      -1.86663345e-002 -1.74760267e-001 -2.54295934e-002
      -4.40959260e-002 -2.54295934e-002 -1.62344426e-003
      -4.40959260e-002 -2.32382715e-001</_>
    <_>
      1.17011465e-001 0. 0. 0. 0. 0. 1.30012743e-002 0. 0. 0.
      5.20050973e-002 7.80076459e-002 0. 0. 7.80076459e-002
      4.94048417e-001 1.17011465e-001 0. 0. 0. 9.10089165e-002
      1.82017833e-001 0. 0. 1.30012743e-002 3.90038230e-002 0.
      5.20050973e-002 1.30012743e-002 1.30012743e-002 0. 0. 0. 0.
      5.20050973e-002 2.60025486e-002 1.30012743e-002 1.30012743e-002 0.
      0. 1.30012743e-002 1.30012743e-002 0. 3.90038230e-002
      7.80076444e-001 5.20050973e-002 3.90038230e-002 2.60025486e-002
      1.17011465e-001 1.17011465e-001 0. 1.30012743e-002 9.10089165e-002
      2.60025486e-002 0. 5.20050973e-002 3.90038230e-002 3.90038230e-002
      7.80076459e-002 8.34513009e-002 0. 0. 0. 0. 0. 1.30012743e-002 0.
      0. 0. 4.36150581e-002 6.96176067e-002 0. 0. 6.96176067e-002
      -2.77835369e-001 3.31110507e-002 0. 0. 0. 7.42288381e-002
      9.81174186e-002 -8.39004107e-003 0. 1.30012743e-002
      1.38336997e-002 0. 1.84449330e-002 4.61123325e-003 1.30012743e-002
      0. 0. 0. 0. 4.36150581e-002 8.32425430e-004 4.61123325e-003
      1.30012743e-002 0. -8.39004107e-003 1.30012743e-002
      -3.77880782e-003 -1.67800821e-002 1.38336997e-002 1.75993502e-001
      -2.35052705e-002 3.06137819e-002 9.22246650e-003 9.18413401e-002
      4.98911366e-002 0. 1.30012743e-002 4.90587093e-002 1.76125076e-002
      -8.39004107e-003 1.84449330e-002 5.44365868e-003 -2.94638425e-003
      2.76673995e-002</_>
    <_>
      1.25491157e-001 0. 0. 0. 0. 0. 0. 0. 0. 3.13727893e-002
      7.84319788e-002 1.72550350e-001 0. 0. 1.72550350e-001
      4.86278236e-001 1.25491157e-001 0. 0. 0. 1.56863958e-001
      1.41177550e-001 0. 1.56863946e-002 0. 1.56863946e-002
      1.56863946e-002 4.70591858e-002 4.70591858e-002 1.56863946e-002 0.
      0. 0. 1.56863946e-002 7.84319788e-002 0. 1.56863946e-002
      3.13727893e-002 3.13727893e-002 0. 4.70591858e-002 1.56863946e-002
      1.56863946e-002 4.70591858e-002 6.58828616e-001 7.84319788e-002
      4.70591858e-002 1.56863946e-002 3.45100701e-001 9.41183716e-002
      4.70591858e-002 0. 7.84319788e-002 6.27455786e-002 3.13727893e-002
      3.13727893e-002 3.13727893e-002 1.56863946e-002 1.25491157e-001
      8.47969204e-003 0. 0. 0. 0. 0. -1.30012743e-002 0. 0.
      3.13727893e-002 2.64268816e-002 9.45427045e-002 0. 0.
      9.45427045e-002 -7.77018070e-003 8.47969204e-003 0. 0. 0.
      6.58550411e-002 -4.08402830e-002 0. 1.56863946e-002
      -1.30012743e-002 -2.33174283e-002 1.56863946e-002 -4.94591147e-003
      3.40579115e-002 2.68512033e-003 0. 0. 0. 1.56863946e-002
      2.64268816e-002 -2.60025486e-002 2.68512033e-003 1.83715150e-002
      3.13727893e-002 0. 3.40579115e-002 2.68512033e-003 1.56863946e-002
      8.05536285e-003 -1.21247828e-001 2.64268816e-002 8.05536285e-003
      -1.03161540e-002 2.28089243e-001 -2.28930935e-002 4.70591858e-002
      -1.30012743e-002 -1.25769377e-002 3.67430300e-002 3.13727893e-002
      -2.06323080e-002 -7.63103366e-003 -2.33174283e-002 4.74835113e-002</_>
    <_>
      2.33486891e-001 3.59210595e-002 1.79605298e-002 0. 0. 0.
      1.79605298e-002 1.79605298e-002 0. 3.59210595e-002 1.07763179e-001
      1.07763179e-001 0. 0. 7.18421191e-002 6.64539635e-001
      1.61644772e-001 0. 0. 1.79605298e-002 1.97565839e-001
      3.23289543e-001 0. 0. 3.59210595e-002 7.18421191e-002
      8.98026526e-002 5.38815893e-002 1.79605298e-002 0. 0.
      5.38815893e-002 0. 3.59210595e-002 5.38815893e-002 1.79605298e-002
      1.79605298e-002 1.79605298e-002 3.59210595e-002 7.18421191e-002
      3.59210595e-002 0. 0. 5.38815893e-002 4.31052715e-001 0.
      1.25723705e-001 7.18421191e-002 8.98026526e-002 5.38815893e-002
      1.79605298e-002 3.59210595e-002 1.43684238e-001 5.38815893e-002
      1.79605298e-002 7.18421191e-002 3.59210595e-002 0. 1.25723705e-001
      1.07995734e-001 3.59210595e-002 1.79605298e-002 0. 0. 0.
      1.79605298e-002 1.79605298e-002 0. 4.54827026e-003 2.93311998e-002
      -6.47871718e-002 0. 0. -1.00708231e-001 1.78261399e-001
      3.61536145e-002 0. 0. 1.79605298e-002 4.07018811e-002
      1.82111993e-001 0. -1.56863946e-002 3.59210595e-002
      5.61557263e-002 7.41162598e-002 6.82240352e-003 -2.90986560e-002
      -1.56863946e-002 0. 5.38815893e-002 0. 2.02346649e-002
      -2.45503895e-002 1.79605298e-002 2.27413513e-003 -1.34122595e-002
      4.54827026e-003 7.18421191e-002 -1.11381263e-002 -1.56863946e-002
      -1.56863946e-002 6.82240352e-003 -2.27775902e-001 -7.84319788e-002
      7.86645189e-002 5.61557263e-002 -2.55298048e-001 -4.02367823e-002
      -2.90986560e-002 3.59210595e-002 6.52522594e-002 -8.86398926e-003
      -1.34122595e-002 4.04693298e-002 4.54827026e-003 -1.56863946e-002
      2.32547522e-004</_>
    <_>
      2.40211323e-001 4.36747856e-002 2.18373928e-002 0. 0. 0.
      4.36747856e-002 0. 0. 0. 8.73495713e-002 3.05723488e-001
      4.36747856e-002 2.18373928e-002 8.73495713e-002 4.80422646e-001
      1.31024361e-001 2.18373928e-002 2.18373928e-002 0. 1.09186962e-001
      1.74699143e-001 0. 0. 0. 0. 6.55121803e-002 6.55121803e-002
      6.55121803e-002 2.18373928e-002 0. 2.18373928e-002 2.18373928e-002
      2.18373928e-002 0. 0. 2.18373928e-002 0. 8.73495713e-002
      2.18373928e-002 2.18373928e-002 2.18373928e-002 2.18373928e-002
      6.55121803e-002 5.89609623e-001 1.09186962e-001 4.36747856e-002
      1.09186962e-001 2.83886105e-001 8.73495713e-002 2.18373928e-002
      2.18373928e-002 6.55121803e-002 4.36747856e-002 2.18373928e-002
      8.73495713e-002 2.18373928e-002 1.09186962e-001 1.31024361e-001
      8.49425644e-002 2.95594446e-002 7.72205088e-003 0.
      -1.41153419e-002 0. 2.95594446e-002 -4.23460267e-002 0. 0.
      7.32342303e-002 2.91608155e-001 4.36747856e-002 7.72205088e-003
      4.50035445e-002 2.12231159e-001 1.02793679e-001 2.18373928e-002
      7.72205088e-003 0. -3.73577327e-003 7.58917481e-002
      -1.41153419e-002 -1.41153419e-002 0. -1.41153419e-002
      6.55121803e-002 5.13968393e-002 6.55121803e-002 2.18373928e-002 0.
      2.18373928e-002 2.18373928e-002 2.18373928e-002 0. 0.
      2.18373928e-002 -1.41153419e-002 3.08882035e-002 -6.39329106e-003
      7.72205088e-003 7.72205088e-003 -6.39329106e-003 -3.32952142e-002
      -2.99656928e-001 -3.19664627e-002 2.95594446e-002 8.09562802e-002
      1.99194044e-001 -8.20345357e-002 2.18373928e-002 2.18373928e-002
      6.55121803e-002 4.36747856e-002 7.72205088e-003 8.73495713e-002
      7.72205088e-003 6.68409318e-002 3.22169662e-002</_>
    <_>
      2.74816394e-001 7.85189681e-003 1.57037936e-002 7.85189681e-003
      7.85189681e-003 0. 2.35556904e-002 5.49632758e-002 0.
      1.57037936e-002 1.17778450e-001 3.06223959e-001 1.57037936e-002
      7.85189681e-003 8.63708630e-002 3.76891047e-001 3.06223959e-001 0.
      2.35556904e-002 0. 2.35556901e-001 1.57037929e-001 1.57037936e-002
      0. 7.85189681e-003 4.71113808e-002 3.14075872e-002 4.71113808e-002
      5.49632758e-002 3.14075872e-002 1.57037936e-002 0. 0.
      1.02074653e-001 1.17778450e-001 5.49632758e-002 1.57037936e-002
      1.57037936e-002 3.14075872e-002 0. 3.14075872e-002 3.14075872e-002
      7.85189681e-003 8.63708630e-002 4.47558105e-001 4.71113808e-002
      3.92594822e-002 7.85189681e-003 3.37631553e-001 2.82668293e-001
      2.35556904e-002 7.85189681e-003 1.02074653e-001 2.35556904e-002
      2.35556904e-002 6.28151745e-002 3.14075872e-002 1.57037936e-002
      1.57037929e-001 1.56401277e-001 7.85189681e-003 1.57037936e-002
      7.85189681e-003 7.85189681e-003 0. 1.73233151e-002 5.49632758e-002
      0. 1.57037936e-002 5.59570640e-003 1.25485092e-001 1.57037936e-002
      7.85189681e-003 6.14413619e-002 -4.06780541e-002 1.95347369e-002
      0. 2.35556904e-002 -3.11618727e-002 1.98162645e-001
      4.48551849e-002 -1.54580791e-002 0. 7.85189681e-003
      4.08790074e-002 1.27104633e-002 2.21818816e-002 2.38014031e-002
      2.51752120e-002 1.57037936e-002 0. 0. 1.02074653e-001
      1.11546077e-001 3.62661518e-002 9.47141834e-003 1.57037936e-002
      3.14075872e-002 0. 3.14075872e-002 3.14075872e-002
      -1.08452272e-002 -1.95795074e-002 -2.31770754e-001 9.71713290e-003
      3.92594822e-002 -1.08452272e-002 1.88054562e-001 -1.16203696e-001
      4.85856645e-003 -4.61285282e-003 7.71451518e-002 2.35556904e-002
      1.10909408e-002 5.65828010e-002 2.51752120e-002 -2.79228278e-002
      8.22494328e-002</_>
    <_>
      1.27681255e-001 5.32005215e-003 0. 0. 0. 0. 5.32005215e-003
      4.78804708e-002 0. 0. 3.72403637e-002 6.17126048e-001 0. 0. 0.
      2.12802086e-002 1.59601569e-001 0. 5.32005215e-003 5.32005215e-003
      1.06401043e-002 3.19203138e-002 1.06401043e-002 0. 1.06401043e-002
      0. 3.19203138e-002 3.72403637e-002 2.12802086e-002 2.12802086e-002
      5.32005215e-003 1.06401043e-002 1.06401043e-002 1.06401043e-002
      4.78804708e-002 1.59601569e-002 5.32005215e-003 2.12802086e-002 0.
      0. 1.59601569e-002 2.12802086e-002 5.32005215e-003 1.06401041e-001
      1.17041148e-001 2.12802086e-002 2.66002603e-002 1.06401043e-002
      6.06485963e-001 3.99003923e-001 1.06401043e-002 5.32005215e-003
      6.91606775e-002 2.12802086e-002 5.32005215e-003 3.72403637e-002
      5.32005215e-003 1.06401043e-002 6.38406277e-002 4.99015152e-002
      -5.05057955e-003 0. 0. 0. 0. 1.34736300e-004 3.75098400e-002
      -5.18531585e-003 -5.18531585e-003 -6.12806380e-002
      -1.03632867e-001 0. 0. -5.18531585e-003 -1.03167377e-001
      -1.30776137e-001 -5.18531585e-003 5.32005215e-003 1.34736300e-004
      -3.60277407e-002 -5.62300608e-002 -3.60277407e-002 0.
      1.06401043e-002 -5.18531585e-003 8.08417797e-004 -1.46127976e-002
      -3.57582718e-002 -2.53876355e-002 5.32005215e-003 1.06401043e-002
      1.06401043e-002 5.45478845e-003 -1.43433213e-002 5.58952522e-003
      1.34736300e-004 1.60948932e-002 -5.18531585e-003 0.
      1.07748415e-002 1.60948932e-002 -1.54212117e-002 -1.80465430e-002
      1.33348256e-002 1.09095769e-002 1.10443123e-002 -4.91584372e-003
      1.65734112e-001 7.75143206e-002 2.69472599e-004 -5.05057955e-003
      -3.43374908e-003 -1.50170047e-002 5.32005215e-003 9.43150371e-004
      -2.06065290e-002 -4.91584372e-003 -8.75379890e-003</_>
    <_>
      2.06425875e-001 1.52908061e-002 0. 7.64540303e-003 7.64540303e-003
      0. 2.29362082e-002 8.40994343e-002 0. 7.64540303e-003
      2.29362082e-002 4.66369569e-001 0. 0. 0. 1.75844267e-001
      9.17448327e-002 0. 7.64540303e-003 0. 0. 3.05816121e-002
      7.64540303e-003 0. 1.52908061e-002 3.05816121e-002 2.29362082e-002
      2.29362082e-002 2.29362082e-002 1.52908061e-002 0. 7.64540303e-003
      7.64540285e-002 1.14681043e-001 1.45262659e-001 2.29362082e-002
      1.52908061e-002 7.64540303e-003 1.52908061e-002 1.52908061e-002
      6.11632243e-002 1.52908061e-002 0. 6.11632243e-002 7.64540303e-003
      4.58724163e-002 4.58724163e-002 1.52908061e-002 7.64540315e-001
      1.37617260e-001 7.64540303e-003 1.52908061e-002 9.17448327e-002
      7.64540303e-003 3.82270142e-002 0. 1.52908061e-002 3.82270142e-002
      1.37617260e-001 8.94588828e-002 1.52908061e-002 0. 7.64540303e-003
      7.64540303e-003 0. 1.64380409e-002 3.86122726e-002 0.
      7.64540303e-003 9.93987545e-003 -1.44947171e-002 0. 0. 0.
      1.75844267e-001 2.67631710e-002 0. 7.64540303e-003 0. 0.
      3.05816121e-002 1.14723668e-003 0. 8.79263971e-003 3.05816121e-002
      2.29362082e-002 2.29362082e-002 2.29362082e-002 -4.20369208e-003
      0. 7.64540303e-003 7.64540285e-002 1.08182877e-001 3.47938314e-002
      1.64380409e-002 8.79263971e-003 7.64540303e-003 1.52908061e-002
      1.52908061e-002 6.11632243e-002 1.52908061e-002 -6.49816636e-003
      -2.98110992e-002 -1.83472633e-002 3.28760818e-002 2.63779182e-002
      -1.72000248e-002 4.25487757e-003 -2.39276379e-001 -1.18490951e-002
      -1.07018594e-002 7.87485018e-002 -1.18490951e-002 3.17288488e-002
      0. 1.52908061e-002 3.17288488e-002 7.91337639e-002</_>
    <_>
      8.81645977e-002 1.03723053e-002 0. 0. 0. 5.18615264e-003
      1.03723053e-002 2.59307642e-002 0. 0. 6.22338317e-002
      7.10502923e-001 0. 0. 0. 5.18615283e-002 2.17818424e-001
      5.18615264e-003 0. 5.18615264e-003 0. 1.55584579e-002
      1.55584579e-002 0. 0. 1.03723053e-002 3.63030694e-002
      3.11169159e-002 1.55584579e-002 3.63030694e-002 0. 0.
      5.18615264e-003 2.07446106e-002 4.14892212e-002 3.11169159e-002
      2.07446106e-002 0. 0. 0. 5.18615264e-003 2.59307642e-002
      2.07446106e-002 1.08909212e-001 2.07446106e-002 1.55584579e-002
      1.55584579e-002 1.03723053e-002 5.54918349e-001 2.90424556e-001
      2.07446106e-002 5.18615264e-003 9.33507532e-002 1.55584579e-002
      1.55584579e-002 2.07446106e-002 5.18615264e-003 1.55584579e-002
      8.81645977e-002 -4.23803180e-002 1.03723053e-002 0. 0. 0.
      5.18615264e-003 1.03723053e-002 -2.44856626e-003 -5.67586627e-003
      0. -3.42558958e-002 1.14537001e-001 0. 0. 0. -2.76005976e-002
      4.18665707e-002 5.18615264e-003 0. 5.18615264e-003 0.
      -7.14500714e-003 -1.84967369e-002 0. 0. 4.69643902e-003
      3.63030694e-002 3.11169159e-002 -1.46913994e-003 1.35996044e-002
      0. 0. 5.18615264e-003 2.07446106e-002 -6.06763735e-002
      1.40893180e-002 9.39287804e-003 0. 0. 0. 5.18615264e-003
      1.45790316e-002 1.50687443e-002 3.51229534e-002 -1.49531379e-001
      1.55584579e-002 9.88259166e-003 -6.65529259e-003 -7.51028061e-002
      -6.14791512e-002 1.50687443e-002 -6.16557989e-003 4.79438230e-002
      -1.46913994e-003 1.55584579e-002 2.07446106e-002 -4.89713624e-004
      -7.14500714e-003 -2.64926255e-003</_>
    <_>
      2.27196097e-001 6.49131695e-003 6.49131695e-003 0. 6.49131695e-003
      6.49131695e-003 0. 2.59652678e-002 1.29826339e-002 1.94739513e-002
      3.89479026e-002 1.49300292e-001 0. 1.94739513e-002 7.78958052e-002
      3.05091918e-001 9.08784419e-002 0. 1.29826339e-002 3.24565843e-002
      1.49300292e-001 1.23335026e-001 2.59652678e-002 0. 1.29826339e-002
      2.59652678e-002 7.78958052e-002 6.49131685e-002 4.54392210e-002
      1.29826339e-002 0. 0. 0. 0. 7.14044869e-002 1.94739513e-002
      6.49131695e-003 0. 1.29826339e-002 6.49131695e-003 6.49131695e-003
      3.89479026e-002 5.19305356e-002 6.49131685e-002 8.04923356e-001
      9.08784419e-002 3.24565843e-002 2.59652678e-002 2.27196097e-001
      1.23335026e-001 2.59652678e-002 0. 8.43871236e-002 2.59652678e-002
      2.59652678e-002 4.54392210e-002 2.59652678e-002 3.24565843e-002
      1.03861071e-001 1.06241383e-001 4.43581026e-004 6.49131695e-003 0.
      6.49131695e-003 6.49131695e-003 0. 2.59652678e-002 1.29826339e-002
      7.37847947e-003 8.70922394e-003 1.19061612e-001 -1.81432068e-002
      1.34262154e-002 -6.77249581e-003 -1.90822423e-001 3.64488214e-002
      -1.20954718e-002 1.29826339e-002 8.26564059e-003 8.88229311e-002
      -5.20493016e-002 1.77432410e-003 0. 8.87162052e-004
      7.82206096e-003 5.37048616e-002 1.04835480e-002 -8.99039954e-003
      6.93489797e-003 0. 0. -6.04773592e-003 0. 4.11658064e-002
      1.34262154e-002 -5.60415490e-003 -6.04773592e-003 8.87162052e-004
      -1.76996272e-002 -1.76996272e-002 8.70922394e-003 1.56441219e-002
      4.07222249e-002 6.62225485e-003 3.04010846e-002 8.26564059e-003
      -4.27341089e-003 1.06241383e-001 6.28576726e-002 -1.03211459e-002
      -3.02386787e-002 3.60052362e-002 -4.27341089e-003 1.99175328e-002
      -2.94266641e-003 -1.03211459e-002 -9.87756625e-003 1.91927701e-002</_>
    <_>
      1.37386486e-001 0. 0. 0. 0. 0. 0. 1.37386490e-002 1.37386490e-002
      4.80852723e-002 2.06079725e-002 8.93012211e-002 0. 1.37386490e-002
      1.71733111e-001 5.83892584e-001 1.09909192e-001 0. 0.
      2.74772979e-002 2.06079736e-001 3.98420811e-001 6.86932430e-002 0.
      0. 0. 6.86932448e-003 8.93012211e-002 3.43466215e-002
      2.06079725e-002 6.86932448e-003 0. 6.86932448e-003 6.86932448e-003
      1.37386490e-002 3.43466215e-002 6.86932448e-003 0. 6.86932448e-003
      9.61705446e-002 2.06079725e-002 2.06079725e-002 6.86932448e-003
      2.06079725e-002 5.77023268e-001 1.03039868e-001 6.86932448e-003 0.
      4.80852723e-002 3.43466215e-002 6.86932448e-003 0. 2.06079725e-002
      1.37386490e-002 3.43466215e-002 2.74772979e-002 3.43466215e-002 0.
      8.93012211e-002 4.74463925e-002 0. 0. 0. 0. 0. 0. 1.37386490e-002
      6.82017999e-003 -3.44008207e-004 -7.06590340e-003 -7.55733997e-003
      0. -9.82889906e-005 5.68985939e-003 1.89539850e-001
      1.30506307e-002 0. 0. 1.36403600e-002 -1.26006767e-001
      3.86604369e-002 2.02639624e-002 -6.91846898e-003 -6.91846898e-003
      -6.91846898e-003 -4.91444953e-005 -2.13942826e-002
      -7.16419145e-003 1.36895031e-002 6.86932448e-003 0.
      6.86932448e-003 6.86932448e-003 -2.08536964e-002 6.67274557e-003
      -6.96761347e-003 -6.91846898e-003 -3.46414894e-002 6.84966668e-002
      -7.06590340e-003 6.77103456e-003 -2.08045505e-002 1.36895031e-002
      -1.14823639e-001 -6.99218586e-002 -4.91444953e-005
      -2.07554065e-002 3.42483334e-002 -3.48380692e-002 -4.91444953e-005
      -6.91846898e-003 -2.78213080e-002 -1.39352269e-002 3.43466215e-002
      -1.40335150e-002 6.67274557e-003 -1.38369380e-002 2.70350017e-002</_>
    <_>
      8.90764743e-002 8.90764780e-003 0. 0. 0. 1.78152956e-002
      4.45382372e-002 2.67229434e-002 0. 1.78152956e-002 2.67229434e-002
      8.90764780e-003 0. 1.78152956e-002 1.95968255e-001 4.89920616e-001
      6.23535328e-002 0. 0. 7.12611824e-002 5.07735908e-001
      5.43366492e-001 3.56305912e-002 0. 1.78152956e-002 8.90764780e-003
      4.45382372e-002 1.06891774e-001 7.12611824e-002 0. 0. 0.
      4.45382372e-002 2.93952376e-001 2.67229434e-002 8.90764780e-003 0.
      0. 1.78152956e-002 1.78152956e-002 1.24707066e-001 0.
      8.90764780e-003 3.56305912e-002 1.15799420e-001 0. 0.
      1.78152956e-002 2.67229434e-002 8.90764780e-003 0. 8.90764780e-003
      2.67229434e-002 3.56305912e-002 8.90764780e-003 3.56305912e-002
      2.67229434e-002 3.56305912e-002 1.78152956e-002 -4.83100116e-002
      8.90764780e-003 0. 0. 0. 1.78152956e-002 4.45382372e-002
      1.29842944e-002 -1.37386490e-002 -3.02699767e-002 6.11497089e-003
      -8.03935751e-002 0. 4.07664664e-003 2.42351443e-002
      -9.39719677e-002 -4.75556590e-002 0. 0. 4.37838845e-002
      3.01656187e-001 1.44945681e-001 -3.30626518e-002 0.
      1.78152956e-002 8.90764780e-003 3.76689136e-002 1.75905526e-002
      3.69145609e-002 -2.06079725e-002 -6.86932448e-003 0.
      3.76689136e-002 2.87083060e-001 1.29842944e-002 -2.54389737e-002
      -6.86932448e-003 0. 1.09459711e-002 -7.83552527e-002
      1.04099095e-001 -2.06079725e-002 2.03832332e-003 1.50226187e-002
      -4.61223841e-001 -1.03039868e-001 -6.86932448e-003 1.78152956e-002
      -2.13623289e-002 -2.54389737e-002 -6.86932448e-003 8.90764780e-003
      6.11497089e-003 2.18919422e-002 -2.54389737e-002 8.15329328e-003
      -7.62367807e-003 3.56305912e-002 -7.14859217e-002</_>
    <_>
      6.42866015e-001 5.98014891e-002 1.49503723e-002 0. 0. 0.
      5.98014891e-002 2.99007446e-002 0. 1.49503723e-002 1.49503723e-002
      2.99007446e-002 0. 1.49503723e-002 1.49503723e-002 4.48511168e-002
      2.99007446e-002 0. 0. 0. 0. 1.49503723e-002 1.49503723e-002 0. 0.
      0. 0. 0. 0. 0. 1.49503723e-002 4.48511168e-002 1.49503723e-001
      1.04652606e-001 0. 7.47518614e-002 2.99007446e-002 2.99007446e-002
      7.47518614e-002 4.33560789e-001 4.78411913e-001 7.47518614e-002
      1.34553358e-001 0. 2.99007446e-002 1.49503723e-001 4.48511168e-002
      2.99007446e-002 0. 1.49503723e-002 5.98014891e-002 5.98014891e-002
      0. 0. 1.49503723e-002 1.49503723e-002 0. 0. 2.24255592e-001
      5.23653090e-001 2.80113742e-002 7.00284354e-003 -7.94752873e-003
      -7.94752873e-003 -1.58950575e-002 4.39064316e-002 2.99007446e-002
      0. 1.49503723e-002 7.00284354e-003 2.19532158e-002 0.
      1.49503723e-002 -1.28105134e-001 -7.41954207e-001 2.19532158e-002
      0. -7.94752873e-003 0. -1.98688224e-001 -4.93691474e-001
      -8.89221393e-003 0. 0. -7.94752873e-003 0. -3.97376455e-002
      -3.17901149e-002 -7.94752873e-003 1.49503723e-002 2.89560594e-002
      8.59234929e-002 6.49149567e-002 0. 6.68043345e-002 2.99007446e-002
      2.99007446e-002 5.09092733e-002 3.30242932e-001 3.43303919e-001
      6.68043345e-002 1.26605824e-001 -7.94752873e-003 -4.16270122e-002
      1.33608669e-001 4.48511168e-002 2.19532158e-002 0. 1.49503723e-002
      5.98014891e-002 5.98014891e-002 0. -7.94752873e-003
      1.49503723e-002 -1.68397427e-002 -7.94752873e-003 -7.94752873e-003
      2.00413004e-001</_>
    <_>
      5.16888499e-001 9.39797238e-002 3.13265733e-002 1.56632867e-002
      1.56632867e-002 0. 3.13265733e-002 6.26531467e-002 0. 0.
      6.26531467e-002 0. 1.56632867e-002 1.56632867e-002 0.
      3.28929037e-001 1.87959448e-001 0. 0. 0. 0. 1.09643012e-001
      1.09643012e-001 0. 0. 0. 0. 0. 4.69898619e-002 4.69898619e-002
      1.56632867e-002 3.13265733e-002 1.87959448e-001 9.39797238e-002
      7.83164352e-002 4.69898619e-002 1.56632867e-002 1.56632867e-002
      7.83164352e-002 3.28929037e-001 4.54235315e-001 1.56632867e-002
      7.83164352e-002 0. 1.40969589e-001 1.40969589e-001 1.56632870e-001
      7.83164352e-002 1.56632867e-002 3.13265733e-002 4.69898619e-002
      7.83164352e-002 0. 1.56632867e-002 0. 0. 0. 1.56632867e-002
      2.81939179e-001 3.76438320e-001 5.38511053e-002 3.13265733e-002
      1.56632867e-002 -4.40102257e-003 0. -2.88663544e-002
      2.25245282e-002 0. 0. 2.46021897e-003 -2.00643092e-002
      1.56632867e-002 1.56632867e-002 -2.00643092e-002 6.80930316e-002
      1.47830829e-001 0. 0. 0. 0. 2.93857753e-002 8.95787030e-002 0. 0.
      0. 0. 0. 4.69898619e-002 4.69898619e-002 1.56632867e-002
      1.12622641e-002 8.76379013e-002 -6.34182245e-003 5.82521260e-002
      4.69898619e-002 -2.44653318e-002 1.56632867e-002 -2.02583894e-001
      -3.33193153e-001 1.13142073e-001 -4.40102257e-003 7.83164352e-002
      -1.40450165e-001 5.19424677e-004 -2.60316610e-001 7.63756335e-002
      5.82521260e-002 -2.44653318e-002 -2.88663544e-002 -7.33959973e-002
      5.82521260e-002 -4.01286185e-002 -4.40102257e-003 -4.01286185e-002
      0. -2.00643092e-002 -4.40102257e-003 2.21746251e-001</_>
    <_>
      3.11137736e-001 6.02202080e-002 2.00734027e-002 1.00367013e-002
      1.00367013e-002 0. 0. 1.00367013e-002 0. 1.00367013e-002
      8.02936107e-002 8.02936107e-002 2.00734027e-002 3.01101040e-002
      1.90697327e-001 6.72458947e-001 2.30844125e-001 1.00367013e-002
      3.01101040e-002 8.02936107e-002 2.40880832e-001 4.21541452e-001
      6.02202080e-002 1.00367013e-002 1.00367013e-002 2.00734027e-002
      7.02569038e-002 1.90697327e-001 6.02202080e-002 2.00734027e-002 0.
      1.00367013e-002 1.00367013e-002 0. 3.01101040e-002 1.00367013e-002
      0. 0. 3.01101040e-002 6.02202080e-002 4.01468053e-002
      3.01101040e-002 0. 1.00367013e-002 1.50550514e-001 4.01468053e-002
      2.00734027e-002 3.01101040e-002 2.00734027e-002 4.01468053e-002 0.
      2.00734027e-002 5.01835048e-002 2.00734027e-002 1.00367013e-002
      4.01468053e-002 3.01101040e-002 4.01468053e-002 8.02936107e-002
      1.38629839e-001 3.66964042e-002 2.00734027e-002 2.19543278e-003
      1.00367013e-002 -7.84126855e-003 -7.84126855e-003 -1.34871043e-002
      0. 2.19543278e-003 3.32459994e-002 9.72219557e-003
      -1.12916715e-002 1.44275669e-002 3.38719636e-002 -6.46202564e-002
      1.36748910e-001 1.00367013e-002 1.44275669e-002 4.10872698e-002
      5.64278662e-003 1.37954950e-002 1.31725967e-002 1.00367013e-002
      1.00367013e-002 4.39086556e-003 -3.16795856e-002 1.27967179e-001
      -1.81924738e-002 1.22321341e-002 0. 1.00367013e-002
      2.19543278e-003 -1.56825371e-002 2.22688355e-002 -2.91696396e-002
      -7.84126855e-003 0. 1.44275669e-002 3.66964042e-002
      2.44642682e-002 -1.25497021e-003 -1.56825371e-002 -5.64583577e-003
      -1.94465280e-001 -6.90080598e-003 2.00734027e-002 6.58629835e-003
      1.22321341e-002 -1.47420727e-002 0. 2.00734027e-002
      1.09771639e-002 -3.45040299e-003 2.19543278e-003 -6.90080598e-003
      2.22688355e-002 1.66229997e-002 2.54047327e-002</_>
    <_>
      1.84035361e-001 2.62907669e-002 0. 0. 0. 0. 0. 0. 0. 0. 0. 0. 0.
      0. 0. 1.31453834e-002 1.31453834e-002 0. 0. 0. 0. 0.
      1.31453834e-002 0. 0. 0. 0. 0. 0. 0. 0. 3.94361503e-002
      6.57269135e-002 6.57269135e-002 0. 3.94361503e-002 0. 0.
      1.31453827e-001 2.10326135e-001 1.18308447e-001 0. 2.62907669e-002
      1.31453834e-002 8.01868379e-001 4.60088432e-001 3.94361503e-002 0.
      0. 7.88723007e-002 1.18308447e-001 1.31453834e-002 0. 0. 0. 0. 0.
      0. 1.31453834e-002 -3.50317538e-001 -4.49562818e-002
      -1.78117622e-002 0. 0. 0. 0. 0. 0. 0. 0. 0. -1.78117622e-002 0.
      -1.78117622e-002 1.31453834e-002 -2.24781409e-002 -1.78117622e-002
      0. 0. -3.56235243e-002 -3.56235243e-002 -4.66637872e-003 0. 0. 0.
      0. 0. 0. 0. 0. 3.81262600e-003 -9.45789441e-002 -5.89554235e-002
      -1.78117622e-002 2.16243882e-002 0. -3.56235243e-002
      4.23950180e-002 -2.17156172e-001 -4.51667935e-001 -5.34352884e-002
      -9.33275744e-003 1.31453834e-002 7.30621338e-001 3.71029615e-001
      -1.03057951e-001 -7.12470487e-002 0. 7.88723007e-002
      8.26849192e-002 -7.59134293e-002 0. 0. -1.78117622e-002 0. 0.
      -1.78117622e-002 -2.89654583e-001</_>
    <_>
      5.93521476e-001 4.45141084e-002 1.48380361e-002 1.48380361e-002
      1.48380361e-002 0. 0. 2.96760723e-002 0. 0. 5.93521446e-002
      1.18704289e-001 0. 0. 0. 7.41901845e-002 1.18704289e-001 0. 0. 0.
      1.48380361e-002 0. 2.96760723e-002 0. 1.48380361e-002 0.
      1.48380361e-002 1.48380361e-002 2.96760723e-002 4.45141084e-002
      1.48380361e-002 4.45141084e-002 1.03866257e-001 1.33542329e-001
      2.96760723e-002 5.93521446e-002 2.96760723e-002 0. 7.41901845e-002
      3.70950907e-001 4.15465027e-001 1.18704289e-001 8.90282169e-002 0.
      1.48380361e-002 2.96760738e-001 1.33542329e-001 1.03866257e-001 0.
      1.48380361e-002 4.45141084e-002 1.03866257e-001 8.90282169e-002
      1.48380361e-002 1.48380361e-002 0. 1.48380361e-002 4.45141084e-002
      2.96760738e-001 4.09486115e-001 1.82233416e-002 1.48380361e-002
      1.48380361e-002 1.48380361e-002 0. 0. 2.96760723e-002 0. 0.
      5.93521446e-002 1.18704289e-001 0. 0. 0. 6.10448010e-002
      1.05558902e-001 0. 0. 0. 1.48380361e-002 0. 1.65306889e-002 0.
      1.48380361e-002 0. 1.48380361e-002 1.48380361e-002 2.96760723e-002
      4.45141084e-002 1.48380361e-002 5.07795811e-003 3.81393433e-002
      6.78154156e-002 2.96760723e-002 1.99159943e-002 2.96760723e-002 0.
      -5.72636425e-002 1.60624772e-001 2.97156572e-001 1.18704289e-001
      6.27374500e-002 -1.31453834e-002 -7.87030339e-001 -1.63327694e-001
      9.41061825e-002 1.03866257e-001 0. -6.40342683e-002
      -7.37943351e-002 9.07208771e-002 8.90282169e-002 1.48380361e-002
      1.48380361e-002 0. 1.48380361e-002 4.45141084e-002 2.83615351e-001</_>
    <_>
      6.89463615e-002 0. 0. 0. 0. 0. 0. 0. 0. 1.06071318e-002
      4.77320962e-002 1.27285585e-001 0. 5.30356588e-003 2.12142635e-002
      4.24285293e-001 2.38660470e-001 0. 0. 1.06071318e-002
      4.77320962e-002 8.48570541e-002 5.30356588e-003 0. 0.
      5.30356588e-003 1.59106981e-002 3.18213962e-002 1.59106981e-002 0.
      0. 0. 0. 0. 1.06071318e-002 1.06071318e-002 0. 0. 5.30356588e-003
      0. 0. 1.06071318e-002 0. 5.83392270e-002 8.22052717e-001
      2.65178308e-002 0. 2.65178308e-002 4.77320962e-002 1.96231946e-001
      2.12142635e-002 0. 3.18213962e-002 5.30356588e-003 1.59106981e-002
      1.59106981e-002 0. 1.59106981e-002 6.36427924e-002
      -2.20716834e-001 -1.75553448e-002 0. 0. -8.77767242e-003
      -2.63330173e-002 -8.77767242e-003 -4.38883640e-002 0.
      1.82945933e-003 -6.63776547e-002 -1.18489251e-001 -2.63330173e-002
      -3.47410655e-003 -7.53401369e-002 -7.60420561e-002
      -5.10027260e-002 0. 0. -6.94821309e-003 -5.75999729e-002
      -1.43362433e-001 -3.85847986e-002 -1.75553448e-002
      -8.77767242e-003 -3.85847986e-002 -9.81990471e-002
      -1.20669678e-002 -1.91999916e-002 0. -8.77767242e-003 0. 0.
      -7.89990574e-002 -1.21057965e-001 -6.94821309e-003
      -8.77767242e-003 -1.75553448e-002 -3.47410655e-003
      -1.75553448e-002 -1.75553448e-002 -1.57258846e-002 0.
      -2.06598304e-002 4.00724441e-001 -5.24812266e-002 -8.77767242e-003
      -2.61482038e-002 -2.50708789e-001 -5.65452874e-003
      -5.11875376e-003 -8.77767242e-003 -1.61287397e-001
      -6.49178103e-002 -1.91999916e-002 -1.64464675e-003
      -2.63330173e-002 -1.64464675e-003 -6.80223033e-002</_>
    <_>
      2.55036563e-001 0. 0. 1.10885464e-002 1.10885464e-002
      1.10885464e-002 2.21770927e-002 7.76198208e-002 0. 3.32656391e-002
      1.10885464e-001 5.21161675e-001 3.32656391e-002 3.32656391e-002
      8.87083709e-002 4.54630405e-001 2.88302213e-001 0. 0.
      1.10885464e-002 2.10682377e-001 1.77416742e-001 7.76198208e-002
      1.10885464e-002 0. 3.32656391e-002 2.21770927e-002 2.21770927e-002
      6.65312782e-002 4.43541855e-002 0. 0. 0. 0. 1.55239642e-001
      7.76198208e-002 3.32656391e-002 0. 0. 0. 0. 5.54427318e-002
      3.32656391e-002 7.76198208e-002 2.32859477e-001 0. 2.21770927e-002
      7.76198208e-002 3.10479283e-001 1.10885464e-001 0. 0.
      1.33062556e-001 1.10885464e-002 0. 3.32656391e-002 0.
      4.43541855e-002 1.44151106e-001 1.95401043e-001 -8.51935893e-003
      0. 1.10885464e-002 1.10885464e-002 1.10885464e-002 2.21770927e-002
      7.76198208e-002 0. 3.32656391e-002 -8.50597844e-002
      2.31503487e-001 3.32656391e-002 3.32656391e-002 7.16696531e-002
      -5.65311015e-002 -1.29146367e-001 0. 0. 2.56918743e-003
      7.43726343e-002 -1.85285062e-002 3.50230262e-002 1.10885464e-002
      0. 2.47462802e-002 -1.19003430e-002 -5.44971377e-002
      1.54151246e-002 1.02767497e-002 0. 0. 0. 0. 1.38200924e-001
      5.20617440e-002 7.70756230e-003 0. 0. 0. 0. 2.98846550e-002
      2.47462802e-002 3.50230262e-002 -2.69782662e-001 -2.55580768e-002
      1.36577338e-002 4.35423851e-002 1.48611471e-001 -1.27656579e-001
      0. 0. 3.08302492e-002 -3.15082483e-002 -8.51935893e-003
      -5.19279502e-002 -4.25967947e-002 1.87961087e-002 7.59962350e-002</_>
    <_>
      5.41028716e-002 0. 0. 0. 0. 0. 0. 0. 0. 0. 4.63738889e-002
      3.86449061e-002 0. 0. 3.09159271e-002 4.71467882e-001
      9.27477777e-002 0. 0. 0. 1.23663709e-001 1.23663709e-001
      1.54579636e-002 0. 0. 0. 1.54579636e-002 7.72898179e-003
      2.31869444e-002 7.72898179e-003 0. 0. 0. 0. 0. 7.72898179e-003 0.
      0. 0. 0. 0. 1.54579636e-002 7.72898179e-003 3.86449061e-002
      8.27001035e-001 2.31869444e-002 7.72898179e-003 1.54579636e-002
      3.86449061e-002 1.85495555e-001 0. 0. 3.09159271e-002
      1.54579636e-002 0. 2.31869444e-002 2.31869444e-002 4.63738889e-002
      5.41028716e-002 -8.02629143e-002 -3.35914455e-002 -1.11971479e-002
      0. 0. 0. 0. 0. -1.11971479e-002 -3.35914455e-002 -8.79918933e-002
      -4.87621069e-001 -1.11971479e-002 -2.23942958e-002
      -1.03449851e-001 5.71734011e-002 -2.54363805e-001 0.
      -2.23942958e-002 -1.11971479e-002 -7.78849572e-002
      -1.33870706e-001 -1.81334820e-002 0. 0. -1.11971479e-002
      -2.93306280e-002 -3.70596088e-002 -6.63902387e-002
      -3.70596088e-002 0. -3.35914455e-002 0. 0. -6.71828911e-002
      -3.46816611e-003 -1.11971479e-002 0. -3.35914455e-002
      -1.11971479e-002 -2.23942958e-002 -6.93633221e-003 7.72898179e-003
      -3.97351347e-002 5.13480902e-001 -1.04045011e-002 -4.82567586e-002
      1.54579636e-002 -2.63678104e-001 3.99326235e-002 -3.35914455e-002
      -2.23942958e-002 -8.10555518e-002 -1.81334820e-002
      -1.11971479e-002 -1.04045011e-002 -1.04045011e-002 2.39795931e-002
      -1.88286975e-003</_>
    <_>
      1.09526992e-001 0. 0. 0. 0. 0. 1.09526990e-002 0. 0.
      1.09526990e-002 4.38107960e-002 9.85742882e-002 0. 2.19053980e-002
      3.28580961e-002 6.90020025e-001 2.62864769e-001 0. 1.09526990e-002
      1.09526990e-002 5.47634959e-002 1.20479688e-001 3.28580961e-002 0.
      2.19053980e-002 1.09526990e-002 5.47634959e-002 7.66688883e-002
      4.38107960e-002 2.19053980e-002 0. 0. 0. 0. 6.57161921e-002
      1.09526990e-002 0. 2.19053980e-002 1.09526990e-002 1.09526990e-002
      3.28580961e-002 1.09526990e-002 2.19053980e-002 1.20479688e-001
      4.70966041e-001 4.38107960e-002 2.19053980e-002 1.09526990e-002
      1.97148576e-001 3.06675553e-001 1.09526990e-002 0. 9.85742882e-002
      4.38107960e-002 1.09526990e-002 3.28580961e-002 1.09526990e-002
      3.28580961e-002 7.66688883e-002 -4.03879434e-002 0. 0. 0. 0. 0.
      1.09526990e-002 0. -1.07082091e-002 1.09526990e-002
      -3.11466716e-002 8.78660828e-002 0. 2.19053980e-002
      -3.13911587e-002 4.33023006e-001 1.87907308e-001 0.
      1.09526990e-002 -1.04637193e-002 -4.16103899e-002 -4.01434600e-002
      7.33468682e-004 0. 1.11971889e-002 1.09526990e-002 5.47634959e-002
      2.31278427e-002 3.31025869e-002 2.19053980e-002 0.
      -1.07082091e-002 0. 0. 5.50079830e-002 -2.11719275e-002
      -2.14164183e-002 2.19053980e-002 -4.25883457e-002 1.09526990e-002
      2.21498869e-002 -1.04637193e-002 4.88979742e-004 2.68938392e-003
      -3.85690689e-001 9.77959484e-004 -1.02192294e-002 2.44489871e-004
      1.22191109e-001 7.10949451e-002 -3.18801366e-002 -1.07082091e-002
      8.78660828e-002 3.31025869e-002 -1.04637193e-002 -9.97474045e-003
      -2.11719275e-002 2.21498869e-002 -1.05370671e-001</_>
    <_>
      7.72219300e-002 1.28703220e-002 0. 0. 0. 0. 0. 2.57406440e-002 0.
      2.57406440e-002 6.43516108e-002 2.44536117e-001 0. 0.
      1.02962576e-001 6.17775440e-001 3.34628373e-001 0. 0. 0.
      1.80184513e-001 1.93054825e-001 2.57406440e-002 0. 1.28703220e-002
      3.86109650e-002 0. 5.14812879e-002 2.57406440e-002 1.28703220e-002
      0. 0. 0. 2.57406440e-002 9.00922567e-002 1.28703220e-002 0. 0. 0.
      0. 1.28703220e-002 1.28703220e-002 0. 5.14812879e-002
      4.11850303e-001 1.28703220e-002 2.57406440e-002 1.28703220e-002
      3.47498685e-001 1.15832895e-001 0. 0. 1.02962576e-001
      3.86109650e-002 1.28703220e-002 5.14812879e-002 0. 2.57406440e-002
      1.28703222e-001 -3.23050618e-002 1.28703220e-002 0. 0. 0. 0.
      -1.09526990e-002 2.57406440e-002 0. 1.47879450e-002
      2.05408148e-002 1.45961821e-001 0. -2.19053980e-002
      7.01044798e-002 -7.22445846e-002 7.17636049e-002 0.
      -1.09526990e-002 -1.09526990e-002 1.25421017e-001 7.25751370e-002
      -7.11745210e-003 0. -9.03507601e-003 2.76582651e-002
      -5.47634959e-002 -2.51876004e-002 -1.80701520e-002
      -9.03507601e-003 0. 0. 0. 2.57406440e-002 2.43760645e-002
      1.91762298e-003 0. -2.19053980e-002 -1.09526990e-002
      -1.09526990e-002 -1.99877732e-002 1.91762298e-003 -2.19053980e-002
      -6.89983964e-002 -5.91157377e-002 -3.09404731e-002 3.83524597e-003
      1.91762298e-003 1.50350109e-001 -1.90842658e-001 -1.09526990e-002
      0. 4.38828766e-003 -5.19983098e-003 1.91762298e-003
      1.86231919e-002 -1.09526990e-002 -7.11745210e-003 5.20343333e-002</_>
    <_>
      2.34364867e-001 1.95304062e-002 6.51013525e-003 0. 1.30202705e-002
      6.51013525e-003 0. 5.20810820e-002 6.51013525e-003 3.25506777e-002
      1.75773650e-001 3.38527024e-001 0. 2.60405410e-002 9.76520255e-002
      5.53361475e-001 4.16648656e-001 0. 6.51013525e-003 2.60405410e-002
      1.17182434e-001 1.75773650e-001 3.90608124e-002 6.51013525e-003
      1.30202705e-002 1.30202705e-002 7.16114864e-002 4.55709472e-002
      2.60405410e-002 3.25506777e-002 0. 0. 1.30202705e-002
      5.20810820e-002 9.76520255e-002 3.90608124e-002 6.51013525e-003 0.
      1.30202705e-002 1.95304062e-002 2.60405410e-002 3.90608124e-002
      1.30202705e-002 7.81216249e-002 3.71077716e-001 3.25506777e-002
      2.60405410e-002 3.90608124e-002 1.88793927e-001 1.36712834e-001
      6.51013525e-003 6.51013525e-003 9.11418945e-002 1.95304062e-002 0.
      4.55709472e-002 2.60405410e-002 1.95304062e-002 1.36712834e-001
      3.38257551e-002 1.23394653e-004 6.51013525e-003 0. 1.30202705e-002
      6.51013525e-003 -6.46900386e-003 2.62050666e-002 -6.42787246e-003
      1.31436661e-002 7.22695887e-002 1.89739943e-001 -1.29380077e-002
      1.31025333e-002 4.58999947e-002 6.81861937e-002 1.25543505e-001 0.
      4.11313958e-005 1.31025333e-002 -1.21976435e-002 6.58005923e-002
      6.71579316e-003 6.51013525e-003 6.55126665e-003 8.22627917e-005
      5.86734787e-002 1.32259279e-002 -1.92424860e-002 2.05658376e-004
      0. 0. 1.30202705e-002 6.79805502e-003 2.00239792e-002
      3.25918086e-002 4.11313958e-005 -6.46900386e-003 6.55126665e-003
      -1.92836169e-002 -1.92424860e-002 1.96538009e-002 6.55126665e-003
      5.22456095e-002 -3.01698685e-001 2.05658376e-004 -6.30447827e-003
      1.31847970e-002 -6.34972155e-002 2.67397761e-002 -2.58348845e-002
      -1.28968768e-002 5.75840473e-004 -1.28146131e-002 -1.94070116e-002
      -1.91190913e-002 -6.30447827e-003 6.59239851e-003 5.26157841e-002</_>
    <_>
      4.01164621e-001 4.71958369e-002 0. 0. 0. 0. 7.86597282e-003 0. 0.
      7.86597282e-003 8.65257010e-002 8.65257010e-002 0. 1.57319456e-002
      5.50618097e-002 3.06772947e-001 2.98906982e-001 0. 7.86597282e-003
      2.35979185e-002 1.02257647e-001 1.88783348e-001 6.29277825e-002
      7.86597282e-003 7.86597282e-003 0. 1.17989592e-001 1.17989592e-001
      6.29277825e-002 5.50618097e-002 1.57319456e-002 7.86597282e-003 0.
      0. 3.93298641e-002 1.57319456e-002 7.86597282e-003 7.86597282e-003
      1.57319456e-002 7.86597282e-003 1.57319456e-002 7.86597282e-003
      1.57319456e-002 1.73051402e-001 4.32628512e-001 1.10123619e-001
      3.14638913e-002 2.35979185e-002 1.33721545e-001 4.56226438e-001
      6.29277825e-002 1.57319456e-002 6.29277825e-002 1.17989592e-001
      1.57319456e-002 7.86597282e-002 5.50618097e-002 4.71958369e-002
      2.35979185e-001 -3.55448157e-001 -3.08054835e-002 -7.80013157e-003
      -7.80013157e-003 -2.34003942e-002 -2.34003942e-002
      -2.33345535e-002 -2.34003942e-002 -3.12005263e-002
      -2.33345535e-002 2.41246484e-002 -3.04762721e-002 0.
      -7.66844861e-003 -3.85397673e-002 1.81970835e-001 1.27304092e-001
      0. 6.58412464e-005 7.99765531e-003 -6.15451112e-002
      -2.18202025e-002 -7.27340579e-003 7.86597282e-003 7.86597282e-003
      -7.80013157e-003 1.17989592e-001 1.10189460e-001 -7.74745941e-002
      -7.75404349e-002 1.57319456e-002 -7.73429032e-003 -1.56002631e-002
      -7.80013204e-002 -3.08713242e-002 -1.24670431e-001
      -7.79354721e-002 6.58412464e-005 1.31682493e-004 -7.73429032e-003
      -7.00694993e-002 -7.01353475e-002 -1.71471208e-001 1.73051402e-001
      4.24828380e-001 9.45233554e-002 1.58636272e-002 -5.44034019e-002
      1.33721545e-001 4.48426306e-001 5.51276505e-002 -2.32687145e-002
      6.29277825e-002 1.17989592e-001 -7.66844861e-003 7.08595961e-002
      4.72616777e-002 3.93957049e-002 -1.30626991e-001</_>
    <_>
      8.76848176e-002 5.84565476e-003 0. 0. 5.84565476e-003 0. 0.
      5.84565476e-003 0. 0. 9.93761271e-002 2.51363158e-001 0. 0. 0.
      3.39047968e-001 3.27356666e-001 0. 0. 5.84565476e-003
      1.75369643e-002 4.09195833e-002 1.75369643e-002 0. 0.
      2.33826190e-002 1.16913095e-002 1.75369643e-002 2.92282738e-002
      5.84565476e-003 0. 0. 5.84565476e-003 5.84565476e-003
      4.09195833e-002 0. 1.16913095e-002 0. 0. 0. 1.16913095e-002
      1.75369643e-002 1.16913095e-002 1.11067437e-001 5.43645859e-001
      1.75369643e-002 2.33826190e-002 1.16913095e-002 4.61806715e-001
      3.97504508e-001 1.16913095e-002 5.84565476e-003 7.01478571e-002
      1.16913095e-002 0. 3.50739285e-002 5.84565476e-003 1.75369643e-002
      5.84565476e-002 1.00649968e-002 5.84565476e-003 0. 0.
      5.84565476e-003 0. 0. 5.84565476e-003 -1.10885464e-002 0.
      -2.25978792e-002 1.12756327e-001 0. 0. -1.66328195e-002
      -4.90511656e-002 7.78643787e-002 -5.54427318e-003 -5.54427318e-003
      3.01381573e-004 1.19926911e-002 -8.97887349e-003 9.04144719e-004
      0. -5.54427318e-003 2.33826190e-002 -3.26628760e-002
      -2.12729461e-002 -4.03736532e-003 5.84565476e-003 0. 0.
      5.84565476e-003 5.84565476e-003 2.42867637e-002 -1.10885464e-002
      6.14703633e-003 0. 0. 0. 1.16913095e-002 1.19926911e-002
      6.14703633e-003 2.23590657e-002 -1.43844008e-001 -4.64012846e-003
      1.20552629e-003 6.02763146e-004 1.34694606e-001 3.15824747e-002
      1.16913095e-002 3.01381573e-004 -1.30162388e-002 -1.60300564e-002
      0. 1.28968358e-002 5.84565476e-003 1.19926911e-002
      -3.02518234e-002</_>
    <_>
      5.73516041e-002 0. 0. 0. 0. 0. 0. 0. 0. 0. 8.28412101e-002
      2.10289210e-001 6.37240056e-003 0. 0. 3.05875212e-001
      2.86758035e-001 0. 6.37240056e-003 0. 0. 4.46068048e-002
      1.91172007e-002 0. 0. 0. 3.82344015e-002 1.27448011e-002
      2.54896022e-002 1.27448011e-002 0. 0. 0. 0. 2.54896022e-002
      1.91172007e-002 6.37240056e-003 0. 0. 0. 0. 1.91172007e-002
      2.54896022e-002 8.92136097e-002 6.56357229e-001 4.46068048e-002
      1.27448011e-002 4.46068048e-002 4.26950842e-001 3.50482017e-001
      6.37240056e-003 6.37240056e-003 1.08330809e-001 1.91172007e-002 0.
      1.27448011e-002 1.27448011e-002 1.91172007e-002 4.46068048e-002
      -2.47432441e-002 0. 0. -5.86391753e-003 -5.86391753e-003 0.
      -5.86391753e-003 0. 0. 0. -2.27093101e-002 -1.94321096e-001
      6.37240056e-003 0. 0. -1.39782518e-001 -4.16213572e-002 0.
      6.37240056e-003 0. -5.86391753e-003 9.42330062e-003
      7.38936570e-003 0. 0. -1.75917521e-002 2.06426494e-002
      -4.84695099e-003 -9.69390199e-003 6.88088359e-003 0. 0. 0. 0.
      -3.82998586e-003 7.38936570e-003 6.37240056e-003 0. 0. 0.
      -5.86391753e-003 -4.33846936e-003 1.96256842e-002 1.29826814e-002
      2.16563404e-001 2.70150527e-002 1.27448011e-002 2.70150527e-002
      -1.11514330e-003 3.38304639e-002 5.08483034e-004 5.08483034e-004
      -2.06753835e-002 1.52544864e-003 0. -1.65747870e-002
      1.01696607e-003 1.52544864e-003 -2.57602036e-002</_>
    <_>
      2.79133935e-002 0. 0. 0. 0. 0. 0. 0. 0. 0. 1.04675226e-001
      3.90787512e-001 0. 0. 0. 3.41939062e-001 3.41939062e-001 0. 0.
      6.97834836e-003 6.97834836e-003 4.88484390e-002 2.09350456e-002 0.
      3.48917432e-002 4.18700911e-002 1.04675226e-001 4.18700911e-002
      2.79133935e-002 1.39566967e-002 0. 0. 0. 0. 4.18700911e-002 0.
      6.97834836e-003 0. 6.97834836e-003 6.97834836e-003 1.39566967e-002
      1.39566967e-002 0. 1.39566973e-001 5.30354500e-001 1.39566967e-002
      2.09350456e-002 2.09350456e-002 3.83809149e-001 3.14025670e-001
      6.97834836e-003 1.39566967e-002 1.39566973e-001 3.48917432e-002
      6.97834836e-003 5.58267869e-002 2.79133935e-002 1.39566967e-002
      8.37401822e-002 -2.94382107e-002 0. 0. 0. 0. 0. 0. 0. 0. 0.
      2.18340158e-002 1.80498302e-001 -6.37240056e-003 0. 0.
      3.60638499e-002 5.51810265e-002 0. -6.37240056e-003
      6.97834836e-003 6.97834836e-003 4.24163416e-003 1.81784481e-003 0.
      3.48917432e-002 4.18700911e-002 6.64408207e-002 2.91252900e-002
      2.42379121e-003 1.21189561e-003 0. 0. 0. 0. 1.63804889e-002
      -1.91172007e-002 6.05947804e-004 0. 6.97834836e-003
      6.97834836e-003 1.39566967e-002 -5.16050402e-003 -2.54896022e-002
      5.03533632e-002 -1.26002729e-001 -3.06501091e-002 8.19024444e-003
      -2.36717593e-002 -4.31416929e-002 -3.64563465e-002 6.05947804e-004
      7.58429617e-003 3.12361643e-002 1.57745425e-002 6.97834836e-003
      4.30819839e-002 1.51685923e-002 -5.16050402e-003 3.91333774e-002</_>
    <_>
      8.36593136e-002 1.67318620e-002 5.57728717e-003 0. 0.
      5.57728717e-003 0. 1.11545743e-002 0. 0. 6.69274479e-002
      1.39432177e-001 0. 1.67318620e-002 1.11545743e-002 2.95596242e-001
      3.68100971e-001 0. 5.57728717e-003 1.11545743e-002 5.57728717e-003
      2.23091487e-002 5.57728717e-003 0. 0. 2.78864373e-002
      1.11545743e-002 1.11545743e-002 0. 5.57728717e-003 0.
      5.57728717e-003 0. 5.57728717e-003 2.78864373e-002 1.67318620e-002
      5.57728717e-003 0. 4.46182974e-002 1.11545743e-002 1.11545743e-002
      3.34637240e-002 1.11545743e-002 6.13501593e-002 5.68883300e-001
      1.11545749e-001 5.01955859e-002 2.23091487e-002 4.79646713e-001
      4.01564687e-001 1.67318620e-002 5.57728717e-003 1.11545743e-002
      5.57728717e-003 0. 5.57728717e-003 0. 2.23091487e-002
      6.13501593e-002 -5.63970730e-002 1.03656631e-002 5.57728717e-003
      0. -6.36619935e-003 -7.88912177e-004 0. -1.57782435e-003 0. 0.
      3.50964516e-002 -8.33847970e-002 -1.27323987e-002 1.67318620e-002
      -2.06764229e-002 3.45820785e-002 2.40776986e-001 0.
      -1.98875107e-002 4.78837499e-003 -7.88912177e-004 -1.58880446e-002
      -1.98875107e-002 0. -6.36619935e-003 2.42163986e-003
      1.11545743e-002 1.11545743e-002 0. -7.15511153e-003 0.
      -1.35213099e-002 -1.90985966e-002 5.57728717e-003 2.78864373e-002
      1.03656631e-002 -7.15511153e-003 -6.36619935e-003 -1.01804286e-001
      -6.52398095e-002 -3.34088206e-002 2.70975251e-002 4.78837499e-003
      -9.14386138e-002 -1.68070197e-002 -3.48768309e-002 1.83645897e-002
      -9.52184759e-003 4.03789580e-002 -5.68016469e-002 -2.78315321e-002
      -1.98875107e-002 -2.70426199e-002 -7.88912177e-004 0.
      -7.15511153e-003 0. -9.52184759e-003 -4.68752235e-002</_>
    <_>
      5.46962805e-002 5.46962814e-003 0. 0. 0. 0. 0. 0. 0. 0.
      1.14862189e-001 9.29836780e-002 0. 0. 0. 6.34476840e-001
      4.43039864e-001 5.46962814e-003 1.09392563e-002 0. 2.73481403e-002
      8.75140503e-002 1.09392563e-002 0. 0. 1.64088849e-002
      5.46962805e-002 7.65747949e-002 2.73481403e-002 1.64088849e-002 0.
      0. 0. 0. 1.64088849e-002 2.18785126e-002 1.09392563e-002
      5.46962814e-003 5.46962814e-003 5.46962814e-003 5.46962814e-003
      1.09392563e-002 3.82873975e-002 6.56355396e-002 5.30553937e-001
      5.46962814e-003 1.09392563e-002 1.64088849e-002 1.20331816e-001
      2.13315502e-001 5.46962814e-003 1.64088849e-002 7.11051673e-002
      2.18785126e-002 5.46962814e-003 3.28177698e-002 5.46962814e-003
      1.64088849e-002 3.82873975e-002 -2.89630331e-002 -1.12622343e-002
      -5.57728717e-003 0. 0. -5.57728717e-003 0. -1.11545743e-002 0. 0.
      4.79347408e-002 -4.64484990e-002 0. -1.67318620e-002
      -1.11545743e-002 3.38880599e-001 7.49388933e-002 5.46962814e-003
      5.36196912e-003 -1.11545743e-002 2.17708535e-002 6.52049035e-002
      5.36196912e-003 0. 0. -1.14775524e-002 4.35417071e-002
      6.54202178e-002 2.73481403e-002 1.08315982e-002 0.
      -5.57728717e-003 0. -5.57728717e-003 -1.14775524e-002
      5.14665060e-003 5.36196912e-003 5.46962814e-003 -3.91486697e-002
      -5.68494620e-003 -5.68494620e-003 -2.25244686e-002 2.71328241e-002
      4.28538024e-003 -3.83293629e-002 -1.06076121e-001 -3.92563306e-002
      -5.90026379e-003 -3.59314889e-001 -1.88249186e-001
      -1.12622343e-002 1.08315982e-002 5.99505939e-002 1.63012259e-002
      5.46962814e-003 2.72404831e-002 5.46962814e-003 -5.90026379e-003
      -2.30627619e-002</_>
    <_>
      8.48126635e-002 0. 0. 0. 0. 0. 0. 0. 0. 6.05804753e-003
      1.21160951e-002 1.21160951e-002 0. 6.05804753e-003 4.84643802e-002
      5.99746704e-001 4.24063317e-002 0. 0. 0. 9.08707157e-002
      2.36263856e-001 6.05804753e-003 0. 0. 0. 0. 2.42321901e-002
      3.02902386e-002 6.05804753e-003 6.05804753e-003 0. 0. 0.
      1.21160951e-002 1.21160951e-002 3.02902386e-002 1.21160951e-002
      2.42321901e-002 0. 0. 1.21160951e-002 1.21160951e-002
      3.63482870e-002 7.20907688e-001 1.02986813e-001 0. 1.81741435e-002
      4.84643802e-002 1.21160954e-001 1.81741435e-002 1.21160951e-002
      2.42321901e-002 3.63482870e-002 6.05804753e-003 3.63482870e-002
      2.42321901e-002 1.21160951e-002 8.48126635e-002 7.58193433e-003 0.
      0. 0. 0. 0. 0. 0. 0. 6.05804753e-003 7.28917448e-003
      -2.64992695e-002 0. 6.05804753e-003 2.43297778e-002
      -2.29260325e-002 -2.99974717e-002 0. 0. 0. 4.74284329e-002
      9.62831676e-002 6.05804753e-003 0. 0. -9.65384115e-003
      -4.82692057e-003 1.94052700e-002 2.06363983e-002 6.05804753e-003
      6.05804753e-003 0. 0. 0. -7.19158724e-003 -2.36466620e-003
      3.02902386e-002 7.28917448e-003 1.94052700e-002 -9.65384115e-003
      0. 7.28917448e-003 -2.36466620e-003 7.38676451e-003
      -7.95727968e-003 7.88522065e-002 -1.44807613e-002 -5.96045889e-003
      1.95175409e-004 -7.19158649e-002 1.33472234e-002 7.28917448e-003
      -4.72933240e-003 2.66944468e-002 6.05804753e-003 1.70406047e-002
      1.94052700e-002 -7.19158724e-003 4.61972989e-002</_>
    <_>
      1.58970654e-001 0. 0. 0. 0. 0. 0. 0. 0. 7.94853270e-003
      3.97426635e-002 0. 7.94853270e-003 1.58970654e-002 1.19227998e-001
      6.35882616e-001 1.27176523e-001 7.94853270e-003 7.94853270e-003
      1.58970654e-002 1.90764785e-001 4.29220766e-001 7.94853270e-003 0.
      7.94853270e-003 0. 7.94853270e-003 5.56397289e-002 6.35882616e-002
      7.94853270e-003 0. 0. 1.58970654e-002 0. 1.58970654e-002
      7.94853270e-003 2.38455981e-002 7.94853270e-003 6.35882616e-002
      1.43073589e-001 3.17941308e-002 1.58970654e-002 1.58970654e-002
      3.97426635e-002 4.76911992e-001 1.51022121e-001 0. 7.94853270e-003
      4.76911962e-002 5.56397289e-002 1.58970654e-002 7.94853270e-003
      6.35882616e-002 7.94853270e-003 7.94853270e-003 4.76911962e-002
      7.94853270e-003 7.94853270e-003 1.35125056e-001 7.41579905e-002 0.
      0. 0. 0. 0. 0. 0. 0. 1.89048517e-003 2.76265685e-002
      -1.21160951e-002 7.94853270e-003 9.83901788e-003 7.07636178e-002
      3.61359119e-002 8.47701877e-002 7.94853270e-003 7.94853270e-003
      1.58970654e-002 9.98940691e-002 1.92956910e-001 1.89048517e-003 0.
      7.94853270e-003 0. 7.94853270e-003 3.14075388e-002 3.32980230e-002
      1.89048517e-003 -6.05804753e-003 0. 1.58970654e-002 0.
      3.78097035e-003 -4.16756235e-003 -6.44464046e-003 -4.16756235e-003
      3.93560715e-002 1.43073589e-001 3.17941308e-002 3.78097035e-003
      3.78097035e-003 3.39437649e-003 -2.43995696e-001 4.80353087e-002
      0. -1.02256108e-002 -7.73184001e-004 -6.55212253e-002
      -2.27707811e-003 -4.16756235e-003 3.93560715e-002 -2.83997543e-002
      1.89048517e-003 1.13429092e-002 -1.62836574e-002 -4.16756235e-003
      5.03123924e-002</_>
    <_>
      1.19080670e-001 9.92338918e-003 0. 0. 0. 0. 0. 0. 0. 0.
      1.98467784e-002 3.96935567e-002 0. 9.92338918e-003 1.78621009e-001
      3.96935582e-001 8.93105045e-002 0. 9.92338918e-003 3.96935567e-002
      4.46552515e-001 4.66399312e-001 4.96169478e-002 0. 0. 0. 0.
      2.08391175e-001 9.92338955e-002 9.92338918e-003 9.92338918e-003
      9.92338918e-003 9.92338918e-003 9.92338918e-003 1.98467784e-002
      5.95403351e-002 0. 0. 6.94637299e-002 1.38927460e-001
      6.94637299e-002 1.98467784e-002 3.96935567e-002 2.97701675e-002
      4.76322681e-001 1.58774227e-001 1.98467784e-002 0. 5.95403351e-002
      1.98467784e-002 1.98467784e-002 0. 7.93871135e-002 1.98467784e-002
      1.98467784e-002 2.97701675e-002 1.98467784e-002 4.96169478e-002
      8.93105045e-002 -3.98899838e-002 9.92338918e-003 0. 0. 0. 0. 0. 0.
      0. -7.94853270e-003 -1.98958851e-002 3.96935567e-002
      -7.94853270e-003 -5.97367622e-003 5.93930110e-002 -2.38947034e-001
      -3.78660187e-002 -7.94853270e-003 1.97485648e-003 2.37964913e-002
      2.55787730e-001 3.71785462e-002 4.16684151e-002 0.
      -7.94853270e-003 0. -7.94853270e-003 1.52751446e-001
      3.56456339e-002 1.97485648e-003 9.92338918e-003 9.92338918e-003
      -5.97367622e-003 9.92338918e-003 3.94971296e-003 5.15918024e-002
      -2.38455981e-002 -7.94853270e-003 5.87546825e-003 -4.14612889e-003
      3.76695991e-002 3.94971296e-003 2.37964913e-002 -9.97249596e-003
      -5.89311123e-004 7.75210559e-003 1.98467784e-002 -7.94853270e-003
      1.18491389e-002 -3.57929505e-002 3.94971296e-003 -7.94853270e-003
      1.57988518e-002 1.18982457e-002 1.18982457e-002 -1.79210287e-002
      1.18982457e-002 4.16684151e-002 -4.58145514e-002</_>
    <_>
      9.04601142e-002 1.29228737e-002 0. 0. 0. 1.29228737e-002 0. 0.
      1.29228737e-002 0. 5.16914949e-002 1.55074492e-001 0. 0.
      2.45534599e-001 2.19688848e-001 2.32611731e-001 0. 2.58457474e-002
      7.75372460e-002 6.07375085e-001 2.84303218e-001 7.75372460e-002 0.
      1.29228737e-002 2.58457474e-002 1.29228741e-001 1.55074492e-001
      5.16914949e-002 3.87686230e-002 0. 1.29228737e-002 0. 0.
      2.58457474e-002 2.58457474e-002 2.58457474e-002 0. 1.29228741e-001
      2.58457474e-002 1.29228737e-002 3.87686230e-002 3.87686230e-002
      5.16914949e-002 4.39377695e-001 2.19688848e-001 2.58457474e-002
      1.29228737e-002 3.87686230e-002 2.58457474e-002 1.29228737e-002
      1.29228737e-002 5.16914949e-002 3.87686230e-002 1.29228737e-002
      3.87686230e-002 6.46143705e-002 1.29228737e-002 1.16305865e-001
      -2.22485885e-002 5.40895993e-003 0. 0. 0. 1.29228737e-002 0. 0.
      1.29228737e-002 -7.51391379e-003 5.16914949e-002 1.55074492e-001
      0. 0. 1.47853732e-001 1.82119280e-001 2.32611731e-001 0.
      2.58457474e-002 7.75372460e-002 1.64054185e-001 8.14275444e-002
      7.00233355e-002 0. 5.40895993e-003 1.83318332e-002 1.29228741e-001
      1.32532746e-001 2.16358397e-002 3.12547088e-002 0. 1.29228737e-002
      0. 0. 2.58457474e-002 1.83318332e-002 2.58457474e-002 0.
      3.15478668e-002 3.30400653e-003 1.29228737e-002 3.87686230e-002
      3.12547088e-002 2.16358397e-002 -3.79638880e-001 9.29926336e-003
      1.83318332e-002 5.40895993e-003 8.71296786e-003 -5.68073057e-002
      -2.10495386e-003 5.40895993e-003 4.41775806e-002 3.12547088e-002
      5.40895993e-003 2.37407945e-002 4.95865420e-002 1.29228737e-002
      7.12223798e-002</_>
    <_>
      3.02369952e-001 2.62930393e-002 1.31465197e-002 0. 0.
      1.31465197e-002 2.62930393e-002 2.62930393e-002 1.31465197e-002
      1.31465197e-002 6.57325983e-002 6.57325983e-002 1.31465197e-002
      2.62930393e-002 1.70904756e-001 1.57758236e-001 1.05172157e-001 0.
      0. 6.57325983e-002 5.78446865e-001 3.81249070e-001 0. 0.
      2.62930393e-002 6.57325983e-002 1.31465197e-001 1.44611716e-001
      5.25860786e-002 2.62930393e-002 0. 2.62930393e-002 1.31465197e-002
      1.31465197e-002 0. 6.57325983e-002 2.62930393e-002 0.
      1.05172157e-001 1.18318677e-001 2.62930393e-002 2.62930393e-002
      3.94395590e-002 2.62930393e-002 4.20688629e-001 2.36637354e-001
      1.31465197e-002 0. 3.94395590e-002 2.62930393e-002 2.62930393e-002
      1.31465197e-002 6.57325983e-002 0. 3.94395590e-002 3.94395590e-002
      2.62930393e-002 1.31465197e-002 1.44611716e-001 3.77418995e-002
      1.30616361e-002 1.31465197e-002 0. 0. 1.31465197e-002
      1.30616361e-002 1.30616361e-002 1.31465197e-002 -8.48835334e-005
      1.28069855e-002 -9.30442363e-002 1.31465197e-002 1.30616361e-002
      7.82849342e-002 -4.07128036e-002 -4.03732806e-002 0. 0.
      -4.24414873e-004 1.55041963e-001 2.35703632e-001 -2.64628064e-002
      0. -1.69767067e-004 3.92697901e-002 -1.06700063e-001
      -2.73965299e-002 -1.35709345e-002 2.62930393e-002 0.
      1.30616361e-002 1.31465197e-002 1.31465197e-002 -1.32314032e-002
      2.60383897e-002 -1.69767067e-004 -1.32314032e-002 -6.68360889e-002
      -1.39953494e-002 1.30616361e-002 -2.66325735e-002 2.62081549e-002
      -1.69767067e-004 -1.61493123e-001 -6.76849186e-002
      -8.48835334e-005 0. -2.67174542e-002 -5.30953780e-002
      1.30616361e-002 1.31465197e-002 -1.36558190e-002 -5.29256128e-002
      1.29767526e-002 -1.34860538e-002 1.30616361e-002 1.31465197e-002
      -1.41651183e-002</_>
    <_>
      5.42421862e-002 0. 0. 0. 0. 0. 0. 0. 0. 0. 2.16968749e-002
      3.25453132e-002 0. 1.08484374e-002 1.62726566e-001 1.08484372e-001
      5.42421862e-002 0. 0. 4.33937497e-002 4.88179684e-001
      2.71210939e-001 2.16968749e-002 0. 0. 0. 5.42421862e-002
      1.08484372e-001 3.25453132e-002 1.08484374e-002 0. 0.
      1.08484374e-002 0. 4.33937497e-002 1.08484374e-002 0.
      1.08484374e-002 5.42421862e-002 6.50906265e-002 2.16968749e-002
      1.08484374e-002 2.16968749e-002 1.08484374e-002 7.37693727e-001
      2.49514058e-001 2.16968749e-002 3.25453132e-002 2.16968749e-002
      4.33937497e-002 1.08484374e-002 0. 3.25453132e-002 3.25453132e-002
      1.08484374e-002 1.08484374e-002 1.08484374e-002 1.08484374e-002
      2.16968749e-002 -2.34936923e-002 -9.71698482e-003 0. 0.
      -9.71698482e-003 0. -9.71698482e-003 0. 0. -9.71698482e-003
      1.19798901e-002 3.25453132e-002 -9.71698482e-003 1.08484374e-002
      1.14141643e-001 5.01824655e-002 2.50912327e-002 0. 0.
      1.42427962e-002 2.84123003e-001 1.93475068e-001 1.19798901e-002 0.
      -9.71698482e-003 -2.91509535e-002 3.48082185e-002 2.10315138e-002
      1.31113436e-002 1.13145262e-003 -1.94339696e-002 0.
      1.08484374e-002 0. 1.42427962e-002 -8.58553220e-003 0.
      1.08484374e-002 -8.17955956e-002 3.59396711e-002 1.19798901e-002
      -8.58553220e-003 2.26290524e-003 -2.80195028e-002 -1.75702810e-001
      3.57403904e-002 -7.45407864e-003 3.39435972e-003 -3.66050303e-002
      -4.40591089e-002 -1.83025151e-002 0. -5.49075454e-002
      3.39435972e-003 1.08484374e-002 1.13145262e-003 -1.83025151e-002
      -1.83025151e-002 -1.71710644e-002</_>
    <_>
      1.43750504e-001 1.02678929e-002 0. 0. 0. 1.02678929e-002
      1.02678929e-002 0. 0. 1.02678929e-002 0. 0. 0. 1.02678929e-002
      1.02678932e-001 8.21431428e-002 3.08036786e-002 0. 0.
      1.02678929e-002 6.26341462e-001 2.25893646e-001 0. 0. 0. 0. 0.
      1.43750504e-001 2.05357857e-002 0. 1.02678929e-002 0. 0. 0. 0.
      2.05357857e-002 0. 0. 2.05357857e-002 2.05357857e-002
      1.02678929e-002 0. 1.02678929e-002 4.10715714e-002 6.57145143e-001
      4.10715714e-002 1.02678929e-002 0. 5.13394661e-002 1.74554184e-001
      2.05357857e-002 0. 1.23214714e-001 5.13394661e-002 1.02678929e-002
      8.21431428e-002 0. 0. 3.08036786e-002 1.55419409e-002
      1.11013837e-003 0. 0. 0. 1.02678929e-002 1.02678929e-002 0. 0.
      -8.04761611e-003 -2.74732653e-002 0. 0. 1.11013837e-003
      -1.63718835e-002 -3.66586864e-001 1.24881696e-002 0. 0.
      1.02678929e-002 1.68453723e-001 -2.86940604e-001 0. 0. 0. 0.
      -4.57887761e-002 -2.77356803e-003 2.22027674e-003 0.
      1.02678929e-002 0. 0. 0. 0. 2.05357857e-002 -9.15775448e-003 0.
      1.13780312e-002 -6.93747960e-003 1.02678929e-002 -9.15775448e-003
      -8.04761611e-003 3.19138169e-002 1.62626386e-001 -9.62947533e-002
      1.02678929e-002 0. 4.21817116e-002 1.56238675e-001 2.05357857e-002
      0. 9.57414508e-002 3.30239572e-002 1.11013837e-003 5.46698794e-002
      -3.66310179e-002 0. -5.82733937e-003</_>
    <_>
      2.78153628e-001 1.39076812e-002 1.39076812e-002 1.39076812e-002 0.
      4.17230427e-002 0. 1.39076812e-002 0. 1.39076812e-002 0.
      2.78153624e-002 0. 0. 0. 1.39076812e-002 2.78153624e-002 0. 0. 0.
      1.39076812e-002 5.56307249e-002 1.39076812e-002 2.78153624e-002 0.
      0. 6.95384070e-002 6.95384070e-002 0. 1.39076812e-002
      1.39076812e-002 0. 4.17230427e-002 0. 8.34460855e-002
      1.39076812e-002 1.39076812e-002 2.78153624e-002 5.56307249e-002
      6.95384070e-002 5.56307249e-002 2.78153624e-002 0. 2.78153624e-002
      8.34460855e-001 2.50338256e-001 1.39076812e-002 0. 9.73537713e-002
      2.78153628e-001 1.11261450e-001 0. 1.25169128e-001 2.78153624e-002
      2.78153624e-002 5.56307249e-002 4.17230427e-002 1.39076812e-002
      2.78153624e-002 1.13627315e-003 1.39076812e-002 1.39076812e-002
      -3.40590347e-003 -1.73135847e-002 7.09587336e-003 0.
      -3.80330682e-002 0. 1.39076812e-002 0. -5.87525591e-002
      -1.73135847e-002 0. -1.73135847e-002 -3.40590347e-003
      1.05017778e-002 0. 0. -1.73135847e-002 -3.40590347e-003
      5.56307249e-002 1.39076812e-002 -2.41253879e-002 0. 0.
      3.49112377e-002 5.22248223e-002 -3.46271694e-002 1.39076812e-002
      1.39076812e-002 -5.19407503e-002 -6.21584579e-002 -8.65679234e-002
      -3.77489999e-002 -2.07194872e-002 1.39076812e-002 2.78153624e-002
      -1.00191534e-001 -1.90165341e-001 -3.07954550e-001
      -7.60661364e-002 -3.46271694e-002 1.05017778e-002 2.63112605e-001
      -1.99814916e-001 -5.53466566e-002 -1.73135847e-002 2.80994326e-002
      1.13627315e-003 7.66342804e-002 -5.19407503e-002 3.86012048e-002
      -6.81180693e-003 2.78153624e-002 3.83171402e-002 7.09587336e-003
      1.39076812e-002 -6.81180693e-003</_>
    <_>
      7.02959478e-001 8.11107084e-002 2.70369034e-002 0. 5.40738069e-002
      0. 5.40738069e-002 1.08147614e-001 2.70369034e-002 0.
      2.70369034e-002 1.62221417e-001 0. 0. 2.70369034e-002
      2.16295227e-001 3.24442834e-001 2.70369034e-002 5.40738069e-002
      5.40738069e-002 5.40738069e-002 2.70369034e-002 2.70369034e-002
      2.70369034e-002 5.40738069e-002 5.40738069e-002 3.24442834e-001
      1.08147614e-001 2.70369034e-002 2.70369034e-002 0. 0.
      2.70369034e-002 5.40738069e-002 8.11107084e-002 1.08147614e-001
      2.70369034e-002 0. 5.40738069e-002 1.35184512e-001 1.08147614e-001
      8.11107084e-002 8.11107084e-002 0. 0. 1.35184512e-001
      2.70369034e-002 5.40738069e-002 2.70369034e-002 0. 0.
      2.70369034e-002 0. 8.11107084e-002 0. 8.11107084e-002 0. 0.
      2.43332133e-001 5.77619135e-001 4.69269753e-002 1.56423263e-002 0.
      4.26792279e-002 -1.13945780e-002 5.40738069e-002 7.39638805e-002
      2.70369034e-002 -2.27891561e-002 2.70369034e-002 1.62221417e-001
      0. -1.13945780e-002 4.24774736e-003 1.93506077e-001
      3.24442834e-001 2.70369034e-002 5.40738069e-002 3.12846527e-002
      1.98900737e-002 4.24774736e-003 2.70369034e-002 2.70369034e-002
      4.26792279e-002 5.40738069e-002 2.78864533e-001 9.67530385e-002
      1.56423263e-002 1.56423263e-002 0. -2.27891561e-002
      4.24774736e-003 4.26792279e-002 5.83215505e-002 9.67530385e-002
      2.70369034e-002 -1.13945780e-002 -1.51028588e-001 8.96061957e-002
      3.97801474e-002 8.11107084e-002 6.97161332e-002 -5.69728911e-002
      -8.54593337e-001 -9.27070528e-002 -4.13305610e-002 8.49549472e-003
      -1.21092603e-001 -2.84864455e-001 -5.69728911e-002
      -1.85414087e-002 -6.83674663e-002 4.69269753e-002 -1.13945780e-002
      5.83215505e-002 -3.41837332e-002 -1.13945780e-002 1.17991775e-001</_>
    <_>
      1.26974747e-001 4.61726338e-002 1.15431584e-002 1.15431584e-002 0.
      0. 6.92589507e-002 3.46294753e-002 0. 1.15431584e-002
      1.61604211e-001 5.30985296e-001 4.61726338e-002 3.46294753e-002
      1.26974747e-001 5.88701069e-001 4.50183183e-001 0. 3.46294753e-002
      0. 1.61604211e-001 6.92589507e-002 3.46294753e-002 0. 0. 0.
      1.15431584e-002 1.15431584e-002 1.15431584e-002 1.15431584e-002 0.
      0. 1.15431584e-002 2.30863169e-002 2.07776845e-001 8.08021054e-002
      1.15431584e-002 0. 0. 0. 0. 2.30863169e-002 3.46294753e-002 0. 0.
      0. 0. 2.30863169e-002 0. 0. 0. 0. 0. 0. 0. 1.15431584e-002 0.
      5.77157922e-002 9.23452675e-002 -1.74726978e-001 5.40212914e-003
      -4.76504304e-003 1.15431584e-002 0. 0. 6.92589507e-002
      2.64753737e-002 0. 1.15431584e-002 9.63714048e-002 4.49444294e-001
      -2.75197253e-003 3.46294753e-002 4.54337373e-002 -3.00095916e-001
      2.46330664e-001 0. 2.01307237e-003 0. 4.74467948e-002
      -2.85902619e-002 1.01671722e-002 0. -1.63082015e-002
      -2.44623031e-002 3.38905770e-003 1.15431584e-002 -2.92273462e-002
      -4.76504304e-003 -8.15410074e-003 0. 1.15431584e-002
      2.30863169e-002 2.07776845e-001 7.26480037e-002 1.15431584e-002 0.
      -2.44623031e-002 -2.44623031e-002 -8.15410074e-003
      -1.37598626e-003 2.64753737e-002 -1.63082015e-002 -4.89246063e-002
      -4.07705046e-002 0. -3.39923911e-002 -8.15410074e-003
      -8.15410074e-003 0. -1.63082015e-002 -8.15410074e-003 0.
      -8.15410074e-003 3.38905770e-003 -1.63082015e-002 -2.38252170e-002
      -1.36580467e-002</_>
    <_>
      2.38976061e-001 3.41394357e-002 2.27596238e-002 0. 1.13798119e-002
      1.13798119e-002 2.27596238e-002 2.27596238e-002 1.13798119e-002
      1.13798119e-002 0. 0. 0. 2.27596238e-002 3.41394357e-002 0. 0. 0.
      0. 2.27596238e-002 1.13798119e-002 2.27596238e-002 0. 0. 0. 0.
      3.41394357e-002 5.68990633e-002 5.68990633e-002 2.27596238e-002 0.
      3.41394357e-002 2.27596238e-002 2.27596238e-002 1.13798119e-002
      1.13798119e-002 0. 2.27596238e-002 1.13798127e-001 9.10384953e-002
      3.41394357e-002 2.27596238e-002 0. 1.13798119e-002 8.42106104e-001
      2.84495324e-001 3.41394357e-002 4.55192477e-002 1.70697182e-001
      2.61735678e-001 3.41394357e-002 5.68990633e-002 4.55192477e-002
      1.13798119e-002 3.41394357e-002 1.13798119e-002 2.27596238e-002
      3.41394357e-002 4.55192477e-002 1.12001315e-001 -1.20331980e-002
      1.12164654e-002 -1.15431584e-002 1.13798119e-002 1.13798119e-002
      -4.64993268e-002 -1.18698515e-002 1.13798119e-002 -1.63346529e-004
      -1.61604211e-001 -5.30985296e-001 -4.61726338e-002
      -1.18698515e-002 -9.28353071e-002 -5.88701069e-001
      -4.50183183e-001 0. -3.46294753e-002 2.27596238e-002
      -1.50224403e-001 -4.64993268e-002 -3.46294753e-002 0. 0. 0.
      2.25962773e-002 4.53559048e-002 4.53559048e-002 1.12164654e-002 0.
      3.41394357e-002 1.12164654e-002 -3.26693058e-004 -1.96397036e-001
      -6.94222897e-002 -1.15431584e-002 2.27596238e-002 1.13798127e-001
      9.10384953e-002 3.41394357e-002 -3.26693058e-004 -3.46294753e-002
      1.13798119e-002 8.42106104e-001 2.84495324e-001 3.41394357e-002
      2.24329308e-002 1.70697182e-001 2.61735678e-001 3.41394357e-002
      5.68990633e-002 4.55192477e-002 1.13798119e-002 3.41394357e-002
      -1.63346529e-004 2.27596238e-002 -2.35763565e-002 -4.68260199e-002</_>
    <_>
      1.81150585e-001 1.39346607e-002 1.39346607e-002 4.18039821e-002
      1.39346607e-002 0. 4.18039821e-002 1.39346607e-002 0.
      1.39346607e-002 2.78693214e-002 2.78693214e-002 0. 2.78693214e-002
      2.78693214e-002 0. 4.18039821e-002 0. 0. 0. 1.11477286e-001
      2.78693214e-002 0. 0. 0. 1.39346607e-002 5.57386428e-002
      1.25411943e-001 1.39346607e-002 1.39346607e-002 0. 1.39346607e-002
      2.78693214e-002 2.78693214e-002 8.36079642e-002 1.39346607e-002
      2.78693214e-002 1.39346607e-002 8.36079642e-002 5.57386428e-002
      1.39346607e-002 1.39346607e-002 0. 2.78693214e-002 8.50014269e-001
      1.53281257e-001 2.78693214e-002 5.57386428e-002 2.22954571e-001
      2.78693199e-001 4.18039821e-002 2.78693214e-002 9.75426212e-002
      1.11477286e-001 1.39346607e-002 1.39346607e-002 1.39346607e-002 0.
      4.18039821e-002 -2.11123466e-001 -6.86493516e-002 -2.73573473e-002
      2.11579781e-002 1.39346607e-002 -2.06460040e-002 2.11579781e-002
      -1.09941363e-001 0. -2.73573473e-002 -1.34226866e-002
      -2.40528733e-001 -8.25840160e-002 7.22331740e-003 2.78693214e-002
      -4.12920080e-002 -1.02718040e-001 -2.06460040e-002 0. 0.
      1.11477286e-001 2.78693214e-002 0. 0. -2.06460040e-002
      1.39346607e-002 5.57386428e-002 1.04765937e-001 1.39346607e-002
      1.39346607e-002 -2.06460040e-002 -4.80033495e-002 -5.47146946e-002
      -2.19882727e-001 -2.05436081e-001 -6.86493516e-002 2.78693214e-002
      -6.71134330e-003 -1.96220502e-002 -8.87833834e-002
      -2.54463375e-001 -1.30587369e-001 -1.44522026e-001 7.22331740e-003
      4.57740217e-001 -1.35762796e-001 -1.78590715e-001 3.50926369e-002
      2.22954571e-001 1.34171173e-001 -4.07800339e-002 -7.53606930e-002
      7.68966153e-002 2.88932696e-002 1.39346607e-002 -6.86493516e-002
      -6.71134330e-003 0. -2.26594061e-001</_>
    <_>
      4.42683473e-002 6.32404955e-003 0. 0. 0. 0. 0. 0. 0. 0. 0. 0. 0.
      0. 0. 0. 0. 0. 0. 1.26480991e-002 3.03554386e-001 0. 0. 0. 0.
      4.42683473e-002 3.16202454e-002 4.42683473e-002 0. 1.26480991e-002
      0. 0. 0. 0. 0. 0. 6.32404955e-003 0. 5.05923964e-002
      1.26480991e-002 1.26480991e-002 0. 0. 5.05923964e-002
      8.85366917e-001 2.59286016e-001 1.89721491e-002 1.26480991e-002
      9.48607400e-002 1.64425284e-001 1.89721491e-002 2.52961982e-002
      4.42683473e-002 3.16202454e-002 1.26480991e-002 4.42683473e-002
      3.16202454e-002 6.32404955e-003 1.89721491e-002 2.12992206e-002
      6.32404955e-003 0. 0. 0. 0. 0. 0. 0. 0. -1.53127508e-002 0. 0.
      -1.53127508e-002 -6.12510033e-002 -3.29224139e-001
      -1.53127508e-002 0. -7.65637541e-003 -1.03210276e-002
      9.68322456e-002 -2.90942252e-001 -7.65637541e-003 0. 0.
      2.12992206e-002 -1.44476384e-001 -1.01202779e-001 -6.12510033e-002
      4.99172369e-003 0. 0. 0. 0. 0. -7.65637541e-003 6.32404955e-003
      -7.65637541e-003 2.76232697e-002 1.26480991e-002 1.26480991e-002
      0. 0. 3.52796465e-002 8.91038775e-002 2.21004143e-001
      1.89721491e-002 1.26480991e-002 -4.29540202e-002 3.64139676e-003
      1.13157742e-002 2.52961982e-002 -4.76081595e-002 -6.66163117e-003
      1.26480991e-002 -1.69826560e-002 2.39638705e-002 6.32404955e-003
      -6.52479753e-002</_>
    <_>
      5.10573089e-002 0. 0. 0. 0. 0. 0. 0. 0. 0. 5.67303412e-003
      5.67303412e-003 0. 0. 2.26921365e-002 6.58071935e-001
      6.80764094e-002 0. 0. 0. 9.64415818e-002 2.43940473e-001
      2.83651706e-002 0. 5.67303412e-003 1.70191023e-002 5.67303412e-003
      3.97112407e-002 1.70191023e-002 0. 0. 0. 0. 0. 1.70191023e-002
      1.13460682e-002 0. 0. 1.13460682e-002 5.67303412e-003 0.
      1.70191023e-002 5.67303412e-003 3.40382047e-002 6.86437130e-001
      3.40382047e-002 5.67303412e-003 1.13460682e-002 3.97112407e-002
      6.80764094e-002 0. 0. 5.67303412e-002 1.13460682e-002
      5.67303412e-003 2.83651706e-002 1.13460682e-002 1.13460682e-002
      4.53842729e-002 6.78896159e-003 -6.32404955e-003 0. 0. 0. 0. 0. 0.
      0. 0. 5.67303412e-003 5.67303412e-003 0. 0. 2.26921365e-002
      6.58071935e-001 6.80764094e-002 0. 0. -1.26480991e-002
      -2.07112804e-001 2.43940473e-001 2.83651706e-002 0.
      5.67303412e-003 -2.72492450e-002 -2.59472113e-002 -4.55710664e-003
      1.70191023e-002 -1.26480991e-002 0. 0. 0. 0. 1.70191023e-002
      1.13460682e-002 -6.32404955e-003 0. -3.92463282e-002
      -6.97506499e-003 -1.26480991e-002 1.70191023e-002 5.67303412e-003
      -1.65541917e-002 -1.98929787e-001 -2.25247815e-001
      -1.32991150e-002 -1.30203087e-003 -5.51494993e-002
      -9.63488743e-002 -1.89721491e-002 -2.52961982e-002 1.24619938e-002
      -2.02741772e-002 -6.97506499e-003 -1.59031767e-002
      -2.02741772e-002 5.02201868e-003 2.64121238e-002</_>
    <_>
      2.58810043e-001 2.50461344e-002 1.66974235e-002 0. 0. 0.
      8.34871177e-003 1.66974235e-002 8.34871177e-003 1.66974235e-002
      5.84409796e-002 1.58625513e-001 3.33948471e-002 2.50461344e-002
      1.16881959e-001 5.92758536e-001 1.41928092e-001 0. 8.34871177e-003
      1.66974235e-002 1.58625513e-001 1.41928092e-001 1.66974235e-002 0.
      1.66974235e-002 3.33948471e-002 2.50461344e-002 5.84409796e-002
      3.33948471e-002 8.34871177e-003 0. 3.33948471e-002 1.66974235e-002
      1.66974235e-002 8.34871158e-002 1.66974235e-002 2.50461344e-002
      8.34871177e-003 7.51384050e-002 1.25230670e-001 5.84409796e-002
      1.66974235e-002 0. 7.51384050e-002 5.17620087e-001 1.08533248e-001
      4.17435579e-002 3.33948471e-002 2.67158777e-001 1.75322935e-001
      8.34871177e-003 8.34871177e-003 4.17435579e-002 5.84409796e-002
      3.33948471e-002 4.17435579e-002 8.34871177e-003 1.00184537e-001
      1.41928092e-001 2.07752734e-001 2.50461344e-002 1.66974235e-002 0.
      0. 0. 8.34871177e-003 1.66974235e-002 8.34871177e-003
      1.66974235e-002 5.27679473e-002 1.52952477e-001 3.33948471e-002
      2.50461344e-002 9.41898227e-002 -6.53133988e-002 7.38516822e-002
      0. 8.34871177e-003 1.66974235e-002 6.21839315e-002
      -1.02012381e-001 -1.16677471e-002 0. 1.10243894e-002
      1.63757447e-002 1.93731003e-002 1.87297389e-002 1.63757447e-002
      8.34871177e-003 0. 3.33948471e-002 1.66974235e-002 1.66974235e-002
      6.64680153e-002 5.35135530e-003 2.50461344e-002 8.34871177e-003
      6.37923330e-002 1.19557634e-001 5.84409796e-002 -3.21678817e-004
      -5.67303412e-003 4.11002003e-002 -1.68817043e-001 7.44950473e-002
      3.60705256e-002 2.20487788e-002 2.27447540e-001 1.07246526e-001
      8.34871177e-003 8.34871177e-003 -1.49867833e-002 4.70949113e-002
      2.77218129e-002 1.33783873e-002 -2.99735647e-003 8.88384730e-002
      9.65438187e-002</_>
    <_>
      1.88608378e-001 2.09564865e-002 6.98549580e-003 0. 0. 0. 0. 0.
      6.98549580e-003 6.98549580e-003 9.08114463e-002 1.46695405e-001
      1.39709916e-002 3.49274799e-002 4.88984697e-002 7.33477056e-001
      2.30521351e-001 0. 2.09564865e-002 1.39709916e-002 4.88984697e-002
      1.25738919e-001 6.98549580e-003 6.98549580e-003 0. 3.49274799e-002
      6.28694594e-002 6.98549598e-002 5.58839664e-002 2.09564865e-002
      6.98549580e-003 1.39709916e-002 0. 1.39709916e-002 1.39709916e-002
      2.09564865e-002 1.39709916e-002 0. 4.88984697e-002 4.88984697e-002
      2.09564865e-002 1.39709916e-002 1.39709916e-002 6.98549580e-003
      4.68028218e-001 4.88984697e-002 1.39709916e-002 1.39709916e-002
      1.32724419e-001 1.04782432e-001 6.98549580e-003 2.09564865e-002
      1.95593879e-001 3.49274799e-002 0. 4.88984697e-002 3.49274799e-002
      2.79419832e-002 6.98549598e-002 1.15126424e-001 1.57077760e-002
      6.98549580e-003 0. 0. 0. 0. 0. 1.73678482e-003 6.98549580e-003
      8.03140253e-002 1.30949274e-001 1.39709916e-002 3.49274799e-002
      -3.58864293e-003 2.50595629e-001 1.15049705e-001 0.
      2.09564865e-002 -1.75212752e-002 -2.98321955e-002 -4.74685431e-002
      -3.51192616e-003 6.98549580e-003 0. 3.49274799e-002
      3.13771926e-002 -4.03679758e-002 2.43916996e-002 2.09564865e-002
      6.98549580e-003 1.39709916e-002 0. 1.39709916e-002
      -1.22725647e-002 5.21035306e-003 1.39709916e-002 0.
      3.84010486e-002 4.36497591e-002 2.09564865e-002 -1.22725647e-002
      3.47356964e-003 -1.92580596e-002 -3.40273291e-001 1.21574923e-002
      -1.77514181e-003 8.72228108e-003 5.92424646e-002 -5.79276085e-002
      1.73678482e-003 1.57077760e-002 1.58852905e-001 3.49274799e-002
      -1.04974220e-002 2.79036257e-002 1.91813465e-002 1.74445622e-002
      2.78652720e-002</_>
    <_>
      2.29510128e-001 2.15165745e-002 0. 7.17219152e-003 1.43443830e-002
      7.17219152e-003 1.43443830e-002 5.02053387e-002 7.17219152e-003
      2.15165745e-002 3.58609557e-002 4.37503666e-001 0. 7.17219152e-003
      7.17219152e-003 1.14755064e-001 1.07582867e-001 7.17219152e-003 0.
      1.43443830e-002 0. 1.07582867e-001 2.86887661e-002 0.
      7.17219152e-003 2.86887661e-002 1.36271641e-001 5.02053387e-002
      1.43443830e-002 1.43443830e-002 1.43443830e-002 3.58609557e-002
      2.15165745e-002 7.17219114e-002 8.60662982e-002 4.30331491e-002
      2.15165745e-002 7.17219152e-003 4.30331491e-002 7.17219114e-002
      8.60662982e-002 4.30331491e-002 1.43443830e-002 8.60662982e-002
      2.29510128e-001 1.00410677e-001 6.45497218e-002 4.30331491e-002
      7.10046947e-001 2.22337931e-001 5.02053387e-002 5.73775321e-002
      1.21927254e-001 1.43443830e-002 7.17219152e-003 4.30331491e-002
      1.43443830e-002 2.15165745e-002 6.45497218e-002 1.30839542e-001
      1.57124214e-002 0. 7.17219152e-003 1.43443830e-002 7.17219152e-003
      8.54023080e-003 5.02053387e-002 1.36803929e-003 2.15165745e-002
      6.84019551e-003 7.76462257e-002 0. 7.17219152e-003
      -1.02402642e-002 6.83218464e-002 3.10812891e-003 7.17219152e-003
      0. 2.73607858e-003 -1.74124558e-002 9.01704133e-002
      1.12763103e-002 -5.80415223e-003 7.17219152e-003 2.86887661e-002
      9.56425741e-002 -3.10527943e-002 -1.46763772e-002 2.73607858e-003
      8.54023080e-003 3.58609557e-002 2.15165745e-002 7.17219114e-002
      2.80247778e-002 2.56206933e-002 1.57124214e-002 -4.43611294e-003
      -9.20422003e-003 6.59177601e-002 6.86538443e-002 -3.40006873e-003
      -3.06807272e-003 -6.48416504e-002 -3.04471850e-001 2.49567032e-002
      1.23123527e-002 1.98165402e-002 2.57323086e-001 -3.17448229e-001
      2.11845785e-002 2.83567719e-002 3.48649696e-002 2.73607858e-003
      1.36803929e-003 1.98165402e-002 -8.87222588e-003 4.10411879e-003
      1.23123527e-002</_>
    <_>
      2.06568971e-001 1.87789984e-002 6.25966582e-003 0. 0. 0.
      6.25966582e-003 4.38176617e-002 0. 0. 3.12983282e-002
      6.32226288e-001 0. 0. 6.25966582e-003 1.06414318e-001
      1.00154653e-001 0. 0. 0. 1.25193316e-002 6.25966582e-003
      2.50386633e-002 0. 0. 2.50386633e-002 8.76353234e-002
      2.50386633e-002 2.50386633e-002 6.25966582e-003 0. 1.25193316e-002
      3.12983282e-002 1.00154653e-001 1.62751317e-001 1.25193316e-002
      1.25193316e-002 6.25966582e-003 3.75579968e-002 1.87789984e-002
      3.75579968e-002 1.25193316e-002 1.87789984e-002 6.25966564e-002
      1.25193316e-002 6.25966582e-003 4.38176617e-002 1.87789984e-002
      6.57264948e-001 1.56491652e-001 3.12983282e-002 2.50386633e-002
      8.76353234e-002 3.75579968e-002 6.25966582e-003 1.87789984e-002
      1.25193316e-002 6.25966582e-003 8.13756585e-002 9.15990844e-002
      5.25312871e-003 6.25966582e-003 0. -6.76293485e-003 0.
      6.25966582e-003 -1.70487501e-002 -6.76293485e-003 0.
      4.24658880e-003 3.03251147e-002 0. -6.76293485e-003
      6.25966582e-003 6.58367127e-002 1.89994350e-002 0.
      -6.76293485e-003 -6.76293485e-003 1.25193316e-002 6.25966582e-003
      1.82757284e-002 0. -2.70517394e-002 4.74985875e-003
      -7.04576075e-003 4.74985875e-003 1.82757284e-002 -1.40291387e-002
      0. 1.25193316e-002 3.12983282e-002 7.31029138e-002 9.51219723e-002
      -1.45324077e-002 1.25193316e-002 6.25966582e-003 3.07950620e-002
      1.87789984e-002 1.72691923e-002 -2.80582774e-002 5.25312871e-003
      -1.85585618e-002 -6.86358884e-002 -5.03269024e-004 3.24005261e-003
      -1.50980614e-003 1.47861838e-002 -2.15469763e-001 -2.51634419e-003
      4.74985875e-003 -5.43863028e-002 3.74332443e-003 6.25966582e-003
      -8.27274099e-003 1.25193316e-002 -1.40291387e-002 4.07980494e-002</_>
    <_>
      2.60757416e-001 2.11424939e-002 0. 0. 0. 0. 0. 0. 7.04749813e-003
      0. 2.81899925e-002 3.10089916e-001 0. 0. 1.40949963e-002
      4.93324883e-002 1.55044958e-001 0. 0. 7.04749813e-003
      2.11424939e-002 2.81899925e-002 2.81899925e-002 0. 1.40949963e-002
      2.11424939e-002 2.11424939e-002 1.40949963e-002 4.93324883e-002
      4.22849879e-002 0. 0. 0. 0. 7.04749813e-003 1.40949963e-002
      7.04749813e-003 2.81899925e-002 7.04749813e-003 0. 0.
      7.04749813e-003 7.04749813e-003 2.18472436e-001 3.94659907e-001 0.
      7.04749813e-003 7.04749813e-003 3.73517394e-001 6.27227306e-001
      7.75224790e-002 3.52374911e-002 9.86649767e-002 7.04749823e-002
      1.40949963e-002 2.81899925e-002 5.63799851e-002 1.40949963e-002
      1.90282449e-001 1.39580905e-001 2.11424939e-002 0. 0. 0. 0.
      -1.81764774e-002 -3.02941296e-002 7.04749813e-003 0.
      -6.87512234e-002 -4.16969210e-001 0. -6.05882611e-003
      1.40949963e-002 -1.14255816e-001 -1.23661026e-001 0. 0.
      7.04749813e-003 2.11424939e-002 1.00135151e-002 -2.10413709e-003
      0. 8.03617015e-003 1.50836678e-002 -3.94457653e-002
      1.40949963e-002 1.90383587e-002 1.19908582e-002 0. 0. 0.
      -5.45294322e-002 -1.14129022e-001 -2.83167847e-002
      -5.07015409e-003 2.81899925e-002 9.88672022e-004 0.
      -1.21176522e-002 9.88672022e-004 7.04749813e-003 1.45766526e-001
      3.52248132e-001 -1.81764774e-002 -1.71878058e-002 -5.07015409e-003
      -1.35423958e-001 4.45462525e-001 6.54048249e-002 1.10021867e-002
      1.72375888e-003 4.01808545e-002 1.40949963e-002 2.21311674e-002
      3.82035077e-002 -4.08148114e-003 1.35753021e-001</_>
    <_>
      1.20042741e-001 1.20042739e-002 6.00213697e-003 0. 0. 0. 0. 0. 0.
      0. 1.20042739e-002 1.20042739e-002 1.80064123e-002 0.
      2.40085479e-002 9.60341915e-002 3.60128246e-002 6.00213697e-003
      1.20042739e-002 1.20042739e-002 6.00213697e-003 5.40192351e-002 0.
      0. 6.00213697e-003 4.20149602e-002 3.00106853e-002 6.00213706e-002
      2.40085479e-002 6.00213697e-003 0. 0. 0. 6.00213697e-003 0.
      6.00213697e-003 6.00213697e-003 1.20042739e-002 1.20042739e-002 0.
      0. 6.00213697e-003 6.00213697e-003 1.32047012e-001 8.46301317e-001
      2.40085479e-002 1.80064123e-002 2.40085479e-002 1.80064112e-001
      4.20149595e-001 1.20042739e-002 6.00213697e-003 8.40299204e-002
      4.20149602e-002 1.80064123e-002 3.00106853e-002 6.00213697e-003
      2.40085479e-002 9.00320560e-002 4.38457355e-002 5.65452361e-003
      -6.69736369e-003 0. -6.34975033e-003 0. 0. -1.26995007e-002 0. 0.
      -1.33947274e-002 -5.14932312e-002 1.16566624e-002 -1.90492515e-002
      -1.39045343e-003 -2.72251308e-001 -2.08567828e-003
      -3.47613357e-004 1.20042739e-002 5.65452361e-003 -1.30471140e-002
      3.22123244e-003 -1.26995007e-002 0. 6.00213697e-003
      1.02662072e-002 -2.71370672e-002 5.36716208e-002 -2.04397049e-002
      6.00213697e-003 0. -6.34975033e-003 -6.34975033e-003
      6.00213697e-003 -6.34975033e-003 -3.20963673e-002 6.00213697e-003
      -6.95226714e-004 5.65452361e-003 0. 0. -6.69736369e-003
      -1.30471140e-002 4.31505069e-002 3.35332751e-002 1.13090472e-002
      5.30691165e-003 -7.74020515e-003 8.62085819e-003 7.09133148e-002
      1.20042739e-002 6.00213697e-003 -4.86658514e-003 3.91645730e-003
      1.80064123e-002 1.09614339e-002 -3.47613357e-004 -1.40899550e-002
      7.48530030e-003</_>
    <_>
      1.28777906e-001 6.43889513e-003 0. 0. 0. 0. 6.43889513e-003 0.
      6.43889513e-003 6.43889513e-003 3.86333689e-002 3.21944766e-002 0.
      6.43889513e-003 4.50722650e-002 2.25361332e-001 6.43889531e-002 0.
      1.28777903e-002 1.28777903e-002 2.57555805e-002 7.08278492e-002 0.
      0. 1.28777903e-002 3.21944766e-002 1.28777903e-002 3.21944766e-002
      2.57555805e-002 0. 6.43889513e-003 1.28777903e-002 0. 0.
      6.43889513e-003 2.57555805e-002 0. 6.43889513e-003 0. 0. 0. 0. 0.
      7.08278492e-002 8.30617487e-001 6.43889513e-003 0. 3.86333689e-002
      1.67411268e-001 4.05650377e-001 6.43889513e-003 1.93166845e-002
      7.72667378e-002 6.43889513e-003 1.28777903e-002 5.15111610e-002
      6.43889513e-003 1.93166845e-002 1.22339003e-001 8.73516500e-003
      -5.56537881e-003 -6.00213697e-003 0. 0. 0. 6.43889513e-003 0.
      6.43889513e-003 6.43889513e-003 2.66290940e-002 2.01902017e-002
      -1.80064123e-002 6.43889513e-003 2.10637171e-002 1.29327148e-001
      2.83761285e-002 -6.00213697e-003 8.73516314e-004 8.73516314e-004
      1.97534431e-002 1.68086141e-002 0. 0. 6.87565329e-003
      -9.82048362e-003 -1.71328951e-002 -2.78268941e-002 1.74703263e-003
      -6.00213697e-003 6.43889513e-003 1.28777903e-002 0.
      -6.00213697e-003 6.43889513e-003 1.97534431e-002 -6.00213697e-003
      -5.56537881e-003 -1.20042739e-002 0. 0. -6.00213697e-003
      -6.00213697e-003 -6.12191632e-002 -1.56838298e-002
      -1.75696537e-002 -1.80064123e-002 1.46248210e-002 -1.26528442e-002
      -1.44992173e-002 -5.56537881e-003 1.33145470e-002 -6.76318258e-003
      -3.55760641e-002 -5.12862206e-003 2.15004757e-002 4.36758157e-004
      -4.69186343e-003 3.23069468e-002</_>
    <_>
      9.85742882e-002 0. 0. 0. 1.09526990e-002 5.47634950e-003
      5.47634950e-003 5.47634950e-003 0. 5.47634950e-003 1.09526990e-002
      1.64290480e-002 0. 1.09526990e-002 0. 1.04050636e-001 0.
      1.09526990e-002 1.64290480e-002 2.73817480e-002 2.73817480e-002
      1.64290480e-002 1.09526990e-002 0. 5.47634950e-003 8.76215920e-002
      9.30979401e-002 8.21452439e-002 2.73817480e-002 1.09526990e-002 0.
      0. 1.09526990e-002 1.09526990e-002 0. 0. 5.47634950e-003 0. 0.
      1.64290480e-002 2.73817480e-002 1.09526990e-002 5.47634950e-003
      5.47634959e-002 8.70739579e-001 5.47634959e-002 2.73817480e-002
      2.19053980e-002 1.53337777e-001 3.83344471e-001 1.09526990e-002
      1.64290480e-002 8.76215920e-002 4.38107960e-002 0. 4.38107960e-002
      5.47634950e-003 2.73817480e-002 4.92871441e-002 -3.02036181e-002
      -6.43889513e-003 0. 0. 1.09526990e-002 5.47634950e-003
      -9.62545630e-004 5.47634950e-003 -6.43889513e-003 -9.62545630e-004
      -2.76806690e-002 -1.57654285e-002 0. 4.51380387e-003
      -4.50722650e-002 -1.21310696e-001 -6.43889531e-002 1.09526990e-002
